{"learner":{"attributes":{"best_iteration":"99","best_ntree_limit":"100","scikit_learn":"{\"use_label_encoder\": null, \"n_estimators\": 100, \"objective\": \"binary:logistic\", \"max_depth\": null, \"max_leaves\": null, \"max_bin\": null, \"grow_policy\": null, \"learning_rate\": null, \"verbosity\": null, \"booster\": null, \"tree_method\": null, \"gamma\": null, \"min_child_weight\": null, \"max_delta_step\": null, \"subsample\": null, \"sampling_method\": null, \"colsample_bytree\": null, \"colsample_bylevel\": null, \"colsample_bynode\": null, \"reg_alpha\": null, \"reg_lambda\": null, \"scale_pos_weight\": null, \"base_score\": null, \"missing\": NaN, \"num_parallel_tree\": null, \"random_state\": null, \"n_jobs\": null, \"monotone_constraints\": null, \"interaction_constraints\": null, \"importance_type\": null, \"gpu_id\": null, \"validate_parameters\": null, \"predictor\": null, \"enable_categorical\": false, \"feature_types\": null, \"max_cat_to_onehot\": null, \"max_cat_threshold\": null, \"eval_metric\": null, \"early_stopping_rounds\": null, \"callbacks\": null, \"classes_\": [0, 1], \"n_classes_\": 2, \"_estimator_type\": \"classifier\"}"},"feature_names":["Gender","Married","Dependents","Education","Self_Employed","ApplicantIncome","CoapplicantIncome","LoanAmount","Loan_Amount_Term","Credit_History","Property_Area"],"feature_types":["int","int","int","int","int","int","float","float","float","float","int"],"gradient_booster":{"model":{"gbtree_model_param":{"num_parallel_tree":"1","num_trees":"100","size_leaf_vector":"0"},"tree_info":[0,0,0,0,0,0,0,0,0,0,0,0,0,0,0,0,0,0,0,0,0,0,0,0,0,0,0,0,0,0,0,0,0,0,0,0,0,0,0,0,0,0,0,0,0,0,0,0,0,0,0,0,0,0,0,0,0,0,0,0,0,0,0,0,0,0,0,0,0,0,0,0,0,0,0,0,0,0,0,0,0,0,0,0,0,0,0,0,0,0,0,0,0,0,0,0,0,0,0,0],"trees":[{"base_weights":[-6.0606062E-2,1.841808E0,-8.598575E-1,-3.4319526E-1,-1.1875E0,-3.3898305E-2,-9.818182E-1,-1.5789474E0,-8.4931505E-1,3.0588236E-1,-8.108108E-1,-1.3043479E0,4.6153846E-1,-1.7530864E0,-1.027027E0,-9.2753625E-1,3.3333334E-1,1.2727273E0,-2.9850746E-2,-1.1428572E0,1.5384616E-1,1E0,-2.2222222E-1,4.6153846E-1,-1.5714285E0,-9.8507464E-1,5E-1,5E-1,-0E0,-2.3728813E-1,1E0,-0E0,-1.3333334E0,6.666667E-1,-5E-1,-2.2222222E-1,1E0,-7.628866E-1,-1.4146341E0],"categories":[],"categories_nodes":[],"categories_segments":[],"categories_sizes":[],"default_left":[1,0,1,1,1,1,1,1,1,1,1,0,1,0,1,1,1,0,1,1,1,0,0,1,0,1,0,0,0,0,0,0,0,0,0,0,0,0,0],"id":0,"left_children":[1,-1,3,5,7,9,11,13,15,17,19,-1,21,-1,23,25,27,-1,29,31,33,-1,-1,35,-1,37,-1,-1,-1,-1,-1,-1,-1,-1,-1,-1,-1,-1,-1],"loss_changes":[2.2737898E2,0E0,1.7409233E1,8.312113E0,7.131401E0,8.035418E0,7.002981E0,9.386902E-1,3.6857262E0,6.9357805E0,3.1387E0,0E0,1.4188035E0,0E0,8.221267E0,3.3263016E0,1.6666666E-1,0E0,3.815583E0,1.5238094E0,1.4230769E0,0E0,0E0,1.4188035E0,0E0,2.1181374E0,0E0,0E0,0E0,0E0,0E0,0E0,0E0,0E0,0E0,0E0,0E0,0E0,0E0],"parents":[2147483647,0,0,2,2,3,3,4,4,5,5,6,6,7,7,8,8,9,9,10,10,12,12,14,14,15,15,16,16,18,18,19,19,20,20,23,23,25,25],"right_children":[2,-1,4,6,8,10,12,14,16,18,20,-1,22,-1,24,26,28,-1,30,32,34,-1,-1,36,-1,38,-1,-1,-1,-1,-1,-1,-1,-1,-1,-1,-1,-1,-1],"split_conditions":[9.873687E-1,5.525424E-1,5E-1,1.5E0,1.32E2,5E-1,1.535E2,4.3165E3,1.79165E4,2.6805E3,1.3E2,-3.9130437E-1,5.8165E3,-5.2592593E-1,4.5935E3,3.6585132E2,2.11305E4,3.818182E-1,2.167649E2,5E1,3.8885E3,3E-1,-6.666667E-2,4.5165E3,-4.7142857E-1,6.4115E3,1.5E-1,1.5E-1,-0E0,-7.1186446E-2,3E-1,-0E0,-4.0000004E-1,2.0000002E-1,-1.5E-1,-6.666667E-2,3E-1,-2.2886598E-1,-4.2439026E-1],"split_indices":[9,0,1,10,7,0,7,5,5,5,7,0,5,0,5,8,5,0,7,7,5,0,0,5,0,5,0,0,0,0,0,0,0,0,0,0,0,0,0],"split_type":[0,0,0,0,0,0,0,0,0,0,0,0,0,0,0,0,0,0,0,0,0,0,0,0,0,0,0,0,0,0,0,0,0,0,0,0,0,0,0],"sum_hessian":[1.475E2,4.325E1,1.0425E2,4.125E1,6.3E1,2.85E1,1.275E1,2.75E1,3.55E1,2.025E1,8.25E0,1.05E1,2.25E0,1.925E1,8.25E0,3.35E1,2E0,4.5E0,1.575E1,6E0,2.25E0,1E0,1.25E0,2.25E0,6E0,3.25E1,1E0,1E0,1E0,1.375E1,2E0,1E0,5E0,1.25E0,1E0,1.25E0,1E0,2.325E1,9.25E0],"tree_param":{"num_deleted":"0","num_feature":"11","num_nodes":"39","size_leaf_vector":"0"}},{"base_weights":[-4.6274826E-2,1.4155359E0,-6.346088E-1,1.4359256E0,3.8271418E-1,-3.770379E-1,-1.1087513E0,1.457534E0,3.8271418E-1,-4.4918108E-1,1.0862701E0,-1.358325E0,-6.28434E-1,-1.2129205E-1,-6.6493315E-1,-7.7535874E-1,-1.4536915E0,6.0615916E-2,-8.584062E-1,7.67405E-1,-3.2558402E-1,-8.6277217E-1,-2.2336827E-1,-1.0147494E0,3.0198056E-2,1.0362065E0,-6.322418E-1,-9.9425447E-1,-1.7140163E-1,3.5538203E-3,1.053069E0,-6.5895414E-1,1.321044E-1,-3.2206503E-1,-1.104215E0,3.345868E-1,-7.802623E-1,-7.528646E-2,-1.1370075E0],"categories":[],"categories_nodes":[],"categories_segments":[],"categories_sizes":[],"default_left":[1,1,1,1,0,1,1,0,0,1,0,1,1,1,1,1,0,1,1,1,1,1,1,0,0,0,0,1,0,0,0,0,0,0,0,0,0,0,0],"id":1,"left_children":[1,3,5,7,-1,9,11,-1,-1,13,-1,15,17,19,21,23,-1,25,27,29,31,33,35,-1,-1,-1,-1,37,-1,-1,-1,-1,-1,-1,-1,-1,-1,-1,-1],"loss_changes":[1.2317386E2,3.1616974E-1,1.2046749E1,3.513794E-1,0E0,7.6298666E0,3.3914795E0,0E0,0E0,4.530464E0,0E0,1.20601654E-1,2.2657223E0,5.1683884E0,3.222147E0,1.0523813E0,0E0,3.6494303E0,8.132677E-1,1.1661768E0,3.5551536E0,3.122982E0,4.4384947E0,0E0,0E0,0E0,0E0,1.0414944E0,0E0,0E0,0E0,0E0,0E0,0E0,0E0,0E0,0E0,0E0,0E0],"parents":[2147483647,0,0,1,1,2,2,3,3,5,5,6,6,9,9,11,11,12,12,13,13,14,14,15,15,17,17,18,18,19,19,20,20,21,21,22,22,27,27],"right_children":[2,4,6,8,-1,10,12,-1,-1,14,-1,16,18,20,22,24,-1,26,28,30,32,34,36,-1,-1,-1,-1,38,-1,-1,-1,-1,-1,-1,-1,-1,-1,-1,-1],"split_conditions":[9.873687E-1,2.5E0,1.5E0,7.4045107E3,1.1481426E-1,3.60555E2,1.4520609E2,4.372602E-1,1.1481426E-1,5E-1,3.2588103E-1,8.25E1,5E-1,2.4675E3,1.69E2,7.2E1,-4.3610746E-1,4.695E3,2.595E2,7.05E1,4.361E3,3.44E2,6.8595E3,-3.0442482E-1,9.059417E-3,3.1086195E-1,-1.8967254E-1,1.525E2,-5.142049E-2,1.0661462E-3,3.159207E-1,-1.9768625E-1,3.9631322E-2,-9.661951E-2,-3.3126453E-1,1.0037605E-1,-2.3407869E-1,-2.258594E-2,-3.4110224E-1],"split_indices":[9,2,10,6,0,8,7,0,0,1,0,7,1,5,7,7,0,5,7,7,5,6,5,0,0,0,0,7,0,0,0,0,0,0,0,0,0,0,0],"split_type":[0,0,0,0,0,0,0,0,0,0,0,0,0,0,0,0,0,0,0,0,0,0,0,0,0,0,0,0,0,0,0,0,0,0,0,0,0,0,0],"sum_hessian":[1.4117543E2,4.0109898E1,1.0106553E2,3.8950653E1,1.1592456E0,6.6652664E1,3.4412865E1,3.7791405E1,1.1592456E0,6.4181465E1,2.4712002E0,2.1443048E1,1.2969818E1,2.6091349E1,3.8090115E1,4.2982926E0,1.7144754E1,3.4297907E0,9.540028E0,4.3615627E0,2.1729786E1,2.5645842E1,1.2444275E1,3.113387E0,1.1849055E0,1.2185024E0,2.2112885E0,7.591628E0,1.9483994E0,1.4627321E0,2.8988304E0,1.2317932E1,9.411854E0,8.637106E0,1.7008736E1,6.415621E0,6.0286536E0,1.2260914E0,6.3655367E0],"tree_param":{"num_deleted":"0","num_feature":"11","num_nodes":"39","size_leaf_vector":"0"}},{"base_weights":[-3.546382E-2,1.2008032E0,-4.8785838E-1,1.2674341E0,6.836181E-1,-2.780388E-1,-8.9555407E-1,4.7403562E-1,1.2954191E0,1.0255401E0,5.6838933E-2,-1.17737375E-1,-7.3603034E-1,-1.1105477E0,-4.485826E-1,-7.8297323E-1,7.8717494E-1,-2.34905E-1,8.4953195E-1,2.682298E-1,-9.138585E-1,-7.152887E-1,-1.3282647E0,-1.0115979E-1,-8.304439E-1,-3.3133802E-1,1.1533026E0,-4.6539806E-2,1.421828E0,-2.6207796E-1,6.3894767E-1,2.522209E-2,-1.0505787E0,-3.0756938E-1,-8.2873905E-1,2.748609E-1,-5.95738E-1,-1.0188112E0,-7.313139E-2,-6.1075825E-2,-5.979195E-1,-8.5608965E-1,3.6189157E-1,-2.5310388E-1,-8.886579E-1,6.5219533E-1,-5.214187E-1,-9.3493825E-1,5.4196924E-2],"categories":[],"categories_nodes":[],"categories_segments":[],"categories_sizes":[],"default_left":[1,1,1,1,1,1,1,0,0,0,1,1,1,1,1,0,0,1,1,1,1,1,0,1,1,1,0,0,0,0,0,0,0,1,1,1,1,0,0,0,0,0,0,0,0,0,0,0,0],"id":2,"left_children":[1,3,5,7,9,11,13,-1,-1,-1,15,17,19,21,23,-1,-1,25,27,29,31,33,-1,35,37,39,-1,-1,-1,-1,-1,-1,-1,41,43,45,47,-1,-1,-1,-1,-1,-1,-1,-1,-1,-1,-1,-1],"loss_changes":[7.396757E1,3.5482407E-1,8.028772E0,5.699539E-2,1.2737854E0,4.7102647E0,2.6181774E0,0E0,0E0,0E0,2.6113124E0,5.8195934E0,3.2363434E0,8.759346E-1,1.5358815E0,0E0,0E0,6.408169E0,2.924839E0,8.1480205E-1,1.8826084E0,1.939559E-1,0E0,1.5644994E0,7.3548603E-1,3.0519423E0,0E0,0E0,0E0,0E0,0E0,0E0,0E0,1.6694095E0,1.6557217E-2,1.8313241E0,8.3746374E-1,0E0,0E0,0E0,0E0,0E0,0E0,0E0,0E0,0E0,0E0,0E0,0E0],"parents":[2147483647,0,0,1,1,2,2,3,3,4,4,5,5,6,6,10,10,11,11,12,12,13,13,14,14,17,17,18,18,19,19,20,20,21,21,23,23,24,24,25,25,33,33,34,34,35,35,36,36],"right_children":[2,4,6,8,10,12,14,-1,-1,-1,16,18,20,22,24,-1,-1,26,28,30,32,34,-1,36,38,40,-1,-1,-1,-1,-1,-1,-1,42,44,46,48,-1,-1,-1,-1,-1,-1,-1,-1,-1,-1,-1,-1],"split_conditions":[9.873687E-1,1.5E0,1.5E0,1.8262946E2,1.3456479E2,1.5E0,1.49E2,1.4221069E-1,3.8862574E-1,3.0766204E-1,5.4005E3,2.1941031E2,2.838E3,5E-1,1.98E2,-2.3489198E-1,2.3615249E-1,3.60555E2,5E-1,1.4074301E2,1.04E2,8.25E1,-3.9847943E-1,2.0365571E3,1.10695E4,3.44E2,3.4599078E-1,-1.3961942E-2,4.2654842E-1,-7.862339E-2,1.916843E-1,7.566627E-3,-3.1517363E-1,5.85E1,2.5895E3,5E-1,5E-1,-3.0564338E-1,-2.1939417E-2,-1.8322749E-2,-1.7937586E-1,-2.568269E-1,1.08567476E-1,-7.593117E-2,-2.665974E-1,1.9565861E-1,-1.5642561E-1,-2.804815E-1,1.6259078E-2],"split_indices":[9,10,10,8,7,2,7,0,0,0,5,7,5,1,7,0,0,8,10,7,7,7,0,6,5,6,0,0,0,0,0,0,0,7,5,4,2,0,0,0,0,0,0,0,0,0,0,0,0],"split_type":[0,0,0,0,0,0,0,0,0,0,0,0,0,0,0,0,0,0,0,0,0,0,0,0,0,0,0,0,0,0,0,0,0,0,0,0,0,0,0,0,0,0,0,0,0,0,0,0,0],"sum_hessian":[1.3020743E2,3.4439537E1,9.576789E1,2.9223873E1,5.215664E0,6.433832E1,3.1429575E1,1.6068636E0,2.761701E1,2.9630487E0,2.2526155E0,4.858883E1,1.5749484E1,2.0219418E1,1.1210156E1,1.014254E0,1.2383616E0,4.401441E1,4.574424E0,2.2928066E0,1.3456677E1,8.703634E0,1.1515783E1,6.5320854E0,4.678071E0,4.1867374E1,2.1470332E0,2.1409357E0,2.433488E0,1.0639256E0,1.2288811E0,1.8138093E0,1.1642868E1,2.702479E0,6.0011554E0,3.963185E0,2.5689003E0,3.4697402E0,1.208331E0,2.1400501E1,2.0466873E1,1.3321843E0,1.3702947E0,1.0582973E0,4.942858E0,2.8117313E0,1.1514536E0,1.3998235E0,1.1690768E0],"tree_param":{"num_deleted":"0","num_feature":"11","num_nodes":"49","size_leaf_vector":"0"}},{"base_weights":[-2.6043652E-2,1.0646236E0,-3.811391E-1,1.13174E0,5.871837E-1,-1.9876085E-1,-7.595252E-1,4.0521702E-1,1.1609461E0,9.1234636E-1,4.867428E-2,-1.1128735E-1,-9.536875E-1,-9.816561E-1,-3.977161E-1,-6.2951E-1,7.0274407E-1,-3.64893E-1,1.632267E-1,-2.4560243E-1,-1.2882984E0,-6.455916E-1,-1.1636027E0,1.1369222E-1,-5.7913077E-1,1.8059734E-2,-7.7996147E-1,-2.5113714E-1,4.428995E-1,-4.2155996E-1,4.0634695E-2,-7.849044E-1,9.307479E-2,8.961563E-1,-4.6159694E-1,-8.6484957E-1,-1.9793953E-1,5.670256E-1,-5.827727E-1,4.0512192E-1,-1.0953426E0,2.594185E-1,-1.0047076E0,7.4547255E-1,-3.8754344E-1,-2.844699E-1,-1.087621E0,4.5585182E-1,-4.8469135E-1],"categories":[],"categories_nodes":[],"categories_segments":[],"categories_sizes":[],"default_left":[1,1,1,1,1,1,1,0,0,0,1,1,1,1,1,0,0,1,1,1,0,1,0,1,1,1,1,1,1,0,0,0,0,0,0,1,1,0,0,0,0,0,0,0,0,0,0,0,0],"id":3,"left_children":[1,3,5,7,9,11,13,-1,-1,-1,15,17,19,21,23,-1,-1,25,27,29,-1,31,-1,33,35,37,39,41,43,-1,-1,-1,-1,-1,-1,45,47,-1,-1,-1,-1,-1,-1,-1,-1,-1,-1,-1,-1],"loss_changes":[4.695139E1,2.897911E-1,6.1565456E0,6.0733795E-2,9.6223927E-1,4.056041E0,1.9701748E0,0E0,0E0,0E0,1.8710417E0,4.0706944E0,1.2029715E0,3.199234E-1,1.2584159E0,0E0,0E0,4.823585E0,3.3975844E0,1.8300603E-1,0E0,9.373851E-1,0E0,2.305052E0,8.8009334E-1,5.843675E0,5.8790865E0,4.902765E0,4.634065E0,0E0,0E0,0E0,0E0,0E0,0E0,3.6555028E-1,1.2393385E0,0E0,0E0,0E0,0E0,0E0,0E0,0E0,0E0,0E0,0E0,0E0,0E0],"parents":[2147483647,0,0,1,1,2,2,3,3,4,4,5,5,6,6,10,10,11,11,12,12,13,13,14,14,17,17,18,18,19,19,21,21,23,23,24,24,25,25,26,26,27,27,28,28,35,35,36,36],"right_children":[2,4,6,8,10,12,14,-1,-1,-1,16,18,20,22,24,-1,-1,26,28,30,-1,32,-1,34,36,38,40,42,44,-1,-1,-1,-1,-1,-1,46,48,-1,-1,-1,-1,-1,-1,-1,-1,-1,-1,-1,-1],"split_conditions":[9.873687E-1,1.5E0,1.5E0,1.8262946E2,1.3456479E2,5E-1,1.4520609E2,1.2156511E-1,3.4828386E-1,2.7370393E-1,5.4005E3,5E-1,1.395E2,5E-1,5E-1,-1.8885301E-1,2.1082322E-1,1.2E2,1.32E2,1.14E2,-3.8648954E-1,5E-1,-3.4908083E-1,4.695E3,5.854E3,4.641E3,3.4039496E2,1.5635E3,1.5E0,-1.2646799E-1,1.2190409E-2,-2.3547134E-1,2.7922438E-2,2.688469E-1,-1.3847908E-1,3.855E3,1.875E2,1.7010769E-1,-1.7483181E-1,1.2153658E-1,-3.286028E-1,7.7825546E-2,-3.0141228E-1,2.2364177E-1,-1.1626304E-1,-8.534098E-2,-3.2628632E-1,1.3675556E-1,-1.4540741E-1],"split_indices":[9,10,10,8,7,4,7,0,0,0,5,10,7,1,1,0,0,6,7,7,0,2,0,5,5,5,8,6,2,0,0,0,0,0,0,5,7,0,0,0,0,0,0,0,0,0,0,0,0],"split_type":[0,0,0,0,0,0,0,0,0,0,0,0,0,0,0,0,0,0,0,0,0,0,0,0,0,0,0,0,0,0,0,0,0,0,0,0,0,0,0,0,0,0,0,0,0,0,0,0,0],"sum_hessian":[1.19182556E2,2.8781803E1,9.040075E1,2.4032923E1,4.748879E0,6.202879E1,2.8371964E1,1.5036235E0,2.25293E1,2.5281343E0,2.2207444E0,5.6616085E1,5.4127026E0,1.651777E1,1.1854193E1,1.1087087E0,1.1120358E0,2.9257633E1,2.7358454E1,2.293442E0,3.1192605E0,7.3992453E0,9.118526E0,3.201751E0,8.652441E0,1.5715034E1,1.3542599E1,1.1065628E1,1.6292826E1,1.1275454E0,1.1658967E0,6.1725106E0,1.2267346E0,1.1202812E0,2.0814698E0,4.2203236E0,4.4321175E0,8.241365E0,7.4736676E0,2.7866962E0,1.0755902E1,6.987343E0,4.078285E0,1.2016805E1,4.27602E0,1.8021623E0,2.4181614E0,1.1714697E0,3.260648E0],"tree_param":{"num_deleted":"0","num_feature":"11","num_nodes":"49","size_leaf_vector":"0"}},{"base_weights":[-2.7737508E-2,9.644927E-1,-3.1237796E-1,1.0338618E0,5.1531523E-1,-1.6445133E-1,-6.4106494E-1,3.4710917E-1,1.0666318E0,8.227508E-1,4.751544E-2,-9.225676E-2,-8.025682E-1,-8.4017E-1,-2.9502982E-1,-2.4369307E-1,3.162032E-1,-8.4117585E-1,-1.613389E-2,-2.0926964E-1,-1.1025428E0,-4.8884168E-1,-1.0799941E0,-8.566965E-2,-8.063795E-1,2.7723592E-2,-1.2321062E0,-6.812665E-2,9.063443E-1,-3.614215E-1,3.401313E-2,-7.251351E-1,-2.324344E-1,-3.676698E-1,6.4138126E-1,-1.6043043E-1,5.038424E-1,1.8762764E-1,-7.8779346E-1,1.7416194E-1,-6.429675E-1],"categories":[],"categories_nodes":[],"categories_segments":[],"categories_sizes":[],"default_left":[1,1,1,1,1,1,1,0,0,0,1,1,1,1,1,0,0,1,1,1,0,1,0,1,0,0,0,1,0,0,0,0,1,1,0,0,0,0,0,0,0],"id":4,"left_children":[1,3,5,7,9,11,13,-1,-1,-1,15,17,19,21,23,-1,-1,25,27,29,-1,31,-1,33,-1,-1,-1,35,-1,-1,-1,-1,37,39,-1,-1,-1,-1,-1,-1,-1],"loss_changes":[3.1301172E1,2.3726082E-1,4.078411E0,8.9157104E-2,7.23107E-1,2.7217207E0,1.5683966E0,0E0,0E0,0E0,3.2454395E-1,3.158958E0,8.439195E-1,8.3638E-1,1.1266891E0,0E0,0E0,1.7715852E0,2.5334232E0,1.3303892E-1,0E0,3.4014654E-1,0E0,2.0900457E0,0E0,0E0,0E0,2.7054977E0,0E0,0E0,0E0,0E0,1.4305048E0,1.178798E0,0E0,0E0,0E0,0E0,0E0,0E0,0E0],"parents":[2147483647,0,0,1,1,2,2,3,3,4,4,5,5,6,6,10,10,11,11,12,12,13,13,14,14,17,17,18,18,19,19,21,21,23,23,27,27,32,32,33,33],"right_children":[2,4,6,8,10,12,14,-1,-1,-1,16,18,20,22,24,-1,-1,26,28,30,-1,32,-1,34,-1,-1,-1,36,-1,-1,-1,-1,38,40,-1,-1,-1,-1,-1,-1,-1],"split_conditions":[9.873687E-1,1.5E0,1.5E0,1.8262946E2,1.3456479E2,5E-1,1.49E2,1.0413276E-1,3.1998956E-1,2.4682525E-1,1.8746132E3,6.05E1,1.395E2,5E-1,5E-1,-7.310792E-2,9.486096E-2,2.3805E3,3.60555E2,1.14E2,-3.3076283E-1,3.222E3,-3.2399824E-1,8.3335E3,-2.4191386E-1,8.3170775E-3,-3.696319E-1,2.1941031E2,2.719033E-1,-1.0842645E-1,1.0203939E-2,-2.1754053E-1,4.7365E3,1.715E2,1.9241439E-1,-4.812913E-2,1.5115273E-1,5.6288294E-2,-2.3633805E-1,5.2248586E-2,-1.9289027E-1],"split_indices":[9,10,10,8,7,4,7,0,0,0,6,7,7,1,4,0,0,5,8,7,0,5,0,5,0,0,0,7,0,0,0,0,5,7,0,0,0,0,0,0,0],"split_type":[0,0,0,0,0,0,0,0,0,0,0,0,0,0,0,0,0,0,0,0,0,0,0,0,0,0,0,0,0,0,0,0,0,0,0,0,0,0,0,0,0],"sum_hessian":[1.0876175E2,2.3712772E1,8.504898E1,1.9413027E1,4.299745E0,5.968699E1,2.5361994E1,1.4121071E0,1.800092E1,2.1367302E0,2.1630147E0,5.464877E1,5.0382166E0,1.5192432E1,1.016956E1,1.0826474E0,1.0803672E0,4.114904E0,5.0533867E1,2.261997E0,2.7762196E0,7.3960223E0,7.79641E0,8.043766E0,2.125795E0,1.5651697E0,2.549734E0,4.8714375E1,1.8194937E0,1.0928891E0,1.169108E0,2.8976338E0,4.498389E0,6.151927E0,1.8918388E0,4.256482E1,6.149555E0,2.9381692E0,1.5602195E0,2.1964052E0,3.9555216E0],"tree_param":{"num_deleted":"0","num_feature":"11","num_nodes":"41","size_leaf_vector":"0"}},{"base_weights":[-2.5124554E-2,8.781287E-1,-2.502342E-1,9.54111E-1,4.4786018E-1,-2.8822485E-1,6.58776E-1,2.9767185E-1,9.9196965E-1,7.47594E-1,4.1037444E-2,-1.5827374E-1,-5.9800166E-1,8.574598E-1,2.1585058E-1,-5.290766E-1,6.362659E-1,-7.756891E-2,-5.704206E-1,-8.3334404E-1,-2.7573952E-1,2.8065223E-1,-2.8054237E-1,7.453205E-2,-6.917379E-1,-3.0480576E-1,-9.6913165E-1,-5.7456233E-2,-7.314559E-1,9.3056464E-1,5.0613265E-2,-5.893526E-1,-7.46955E-2,-8.5819787E-1,-1.5225188E-1,-7.0160687E-1,1.1712188E-1,1.9574499E-1,-7.1619034E-1],"categories":[],"categories_nodes":[],"categories_segments":[],"categories_sizes":[],"default_left":[1,1,1,1,1,1,1,0,0,0,1,1,1,0,0,0,0,1,1,1,1,1,1,0,1,1,0,1,0,0,0,0,0,0,0,0,0,0,0],"id":5,"left_children":[1,3,5,7,9,11,13,-1,-1,-1,15,17,19,-1,-1,-1,-1,21,23,25,27,29,31,-1,33,35,-1,37,-1,-1,-1,-1,-1,-1,-1,-1,-1,-1,-1],"loss_changes":[2.0932562E1,2.4434662E-1,3.032812E0,1.1667156E-1,5.7512826E-1,3.1143928E0,1.323309E-1,0E0,0E0,0E0,1.4108919E0,1.8689272E0,1.5296164E0,0E0,0E0,0E0,0E0,3.6601582E0,7.761893E-1,6.3133526E-1,1.0806079E0,2.691105E0,1.9864278E0,0E0,5.7808185E-1,7.682939E-1,0E0,1.5939255E0,0E0,0E0,0E0,0E0,0E0,0E0,0E0,0E0,0E0,0E0,0E0],"parents":[2147483647,0,0,1,1,2,2,3,3,4,4,5,5,6,6,10,10,11,11,12,12,17,17,18,18,19,19,20,20,21,21,22,22,24,24,25,25,27,27],"right_children":[2,4,6,8,10,12,14,-1,-1,-1,16,18,20,-1,-1,-1,-1,22,24,26,28,30,32,-1,34,36,-1,38,-1,-1,-1,-1,-1,-1,-1,-1,-1,-1,-1],"split_conditions":[9.873687E-1,1.5E0,3.60555E2,1.8262946E2,1.3456479E2,1.5E0,1.545E2,8.930156E-2,2.975909E-1,2.2427821E-1,5.4005E3,5E-1,1.4520609E2,2.5723794E-1,6.475518E-2,-1.5872298E-1,1.9087978E-1,5E-1,2.439E3,8.25E1,1.5E0,2.6805E3,1.32E2,2.2359615E-2,5E-1,3.2655E3,-2.907395E-1,5E-1,-2.1943678E-1,2.791694E-1,1.5183981E-2,-1.768058E-1,-2.240865E-2,-2.5745937E-1,-4.567557E-2,-2.1048208E-1,3.5136566E-2,5.8723498E-2,-2.1485712E-1],"split_indices":[9,10,8,8,7,10,7,0,0,0,5,0,7,0,0,0,0,1,5,7,2,5,7,0,2,5,0,0,0,0,0,0,0,0,0,0,0,0,0],"split_type":[0,0,0,0,0,0,0,0,0,0,0,0,0,0,0,0,0,0,0,0,0,0,0,0,0,0,0,0,0,0,0,0,0,0,0,0,0,0,0],"sum_hessian":[1.0086751E2,1.9544447E1,8.132307E1,1.5576307E1,3.9681401E0,7.871617E1,2.606894E0,1.3326105E0,1.4243696E1,1.8024861E0,2.1656542E0,5.651789E1,2.2198277E1,1.1535454E0,1.4533486E0,1.1629292E0,1.0027249E0,4.8256683E1,8.261209E0,1.1912712E1,1.0285565E1,1.7315113E1,3.094157E1,1.3689853E0,6.8922234E0,3.0981658E0,8.814546E0,7.7158394E0,2.5697258E0,3.7304614E0,1.3584652E1,1.1630502E1,1.931107E1,4.8155894E0,2.0766342E0,1.255022E0,1.8431438E0,6.081216E0,1.6346233E0],"tree_param":{"num_deleted":"0","num_feature":"11","num_nodes":"39","size_leaf_vector":"0"}},{"base_weights":[-1.8316586E-2,8.0453706E-1,-1.976148E-1,8.8262624E-1,4.0230766E-1,-1.3285312E-1,-7.054004E-1,2.554351E-1,9.265411E-1,6.822657E-1,4.42264E-2,-7.1271974E-1,-5.4822672E-2,-2.0377296E-1,-1.0786549E0,9.9313885E-1,2.9164246E-1,-2.2685957E-1,2.9720482E-1,-1.17031E-1,-9.512677E-1,2.5391024E-1,-2.5677043E-1,-8.5232764E-1,3.0294493E-1,4.6120074E-1,-7.657203E-1,-2.537698E-1,-1.0451487E0,9.0985316E-1,7.412448E-2,-5.269345E-1,-6.487837E-2,6.380422E-1,-2.293467E-1,1.167909E0,2.8834206E-1,-8.5912985E-1,2.910437E-1,5.5788636E-1,-6.9509435E-1,-3.3292574E-1,5.032649E-1],"categories":[],"categories_nodes":[],"categories_segments":[],"categories_sizes":[],"default_left":[1,1,1,1,1,1,1,0,1,0,1,1,1,1,0,0,0,0,0,1,1,1,1,0,1,0,0,0,0,1,1,1,1,0,0,0,0,0,0,0,0,0,0],"id":6,"left_children":[1,3,5,7,9,11,13,-1,15,-1,17,19,21,23,-1,-1,-1,-1,-1,25,27,29,31,-1,33,-1,-1,-1,-1,35,37,39,41,-1,-1,-1,-1,-1,-1,-1,-1,-1,-1],"loss_changes":[1.4120129E1,1.8288231E-1,2.4877977E0,1.3530731E-1,4.3318456E-1,3.1668642E0,1.3992805E0,0E0,2.2794247E-1,0E0,2.798408E-1,1.0709953E0,4.026372E0,1.8757999E0,0E0,0E0,0E0,0E0,0E0,1.6732771E0,1.146245E-1,2.9547262E0,1.9828138E0,0E0,7.708061E-1,0E0,0E0,0E0,0E0,5.332165E-1,4.5423307E0,3.3097382E0,3.8055882E0,0E0,0E0,0E0,0E0,0E0,0E0,0E0,0E0,0E0,0E0],"parents":[2147483647,0,0,1,1,2,2,3,3,4,4,5,5,6,6,8,8,10,10,11,11,12,12,13,13,19,19,20,20,21,21,22,22,24,24,29,29,30,30,31,31,32,32],"right_children":[2,4,6,8,10,12,14,-1,16,-1,18,20,22,24,-1,-1,-1,-1,-1,26,28,30,32,-1,34,-1,-1,-1,-1,36,38,40,42,-1,-1,-1,-1,-1,-1,-1,-1,-1,-1],"split_conditions":[9.873687E-1,1.5E0,5E-1,1.8262946E2,1.3456479E2,7.45E1,6.15E3,7.663053E-2,1.5E0,2.0467971E-1,1.8746132E3,2.3805E3,5E-1,2.676E3,-3.2359648E-1,2.9794165E-1,8.749274E-2,-6.805787E-2,8.916145E-2,5.43E2,3.3E2,2.6555E3,3.9055E3,-2.556983E-1,4.9505E3,1.3836023E-1,-2.297161E-1,-7.613094E-2,-3.1354463E-1,1.597465E3,3.2795E3,2.8173395E2,2.0727905E3,1.9141267E-1,-6.880401E-2,3.5037273E-1,8.650262E-2,-2.5773898E-1,8.7313116E-2,1.6736591E-1,-2.0852831E-1,-9.987772E-2,1.5097947E-1],"split_indices":[9,10,4,8,7,7,5,0,2,0,6,5,1,5,0,0,0,0,0,6,8,5,5,0,5,0,0,0,0,6,5,8,6,0,0,0,0,0,0,0,0,0,0],"split_type":[0,0,0,0,0,0,0,0,0,0,0,0,0,0,0,0,0,0,0,0,0,0,0,0,0,0,0,0,0,0,0,0,0,0,0,0,0,0,0,0,0,0,0],"sum_hessian":[9.362858E1,1.6127493E1,7.750108E1,1.2505358E1,3.622136E0,6.9853745E1,7.6473355E0,1.2643617E0,1.1240995E1,1.5247253E0,2.097411E0,7.32034E0,6.2533405E1,3.9221632E0,3.7251725E0,9.663133E0,1.5778632E0,1.0623094E0,1.0351014E0,2.5194664E0,4.8008738E0,2.4626972E1,3.7906433E1,1.4211543E0,2.501009E0,1.4848874E0,1.034579E0,1.0088233E0,3.7920504E0,4.4242964E0,2.0202675E1,1.5017441E1,2.2888992E1,1.412879E0,1.0881301E0,2.5050411E0,1.9192553E0,3.2518034E0,1.6950872E1,1.7044189E0,1.3313023E1,1.5833045E1,7.055947E0],"tree_param":{"num_deleted":"0","num_feature":"11","num_nodes":"43","size_leaf_vector":"0"}},{"base_weights":[-1.3931887E-2,7.338416E-1,-1.5915868E-1,2.9820794E-1,8.0218786E-1,-5.4160215E-2,-4.2722976E-1,6.489334E-1,-2.7541193E-1,9.823678E-1,3.099767E-1,3.8232308E-2,-4.3450218E-1,-6.200847E-1,-1.6824187E-1,-7.0940906E-1,8.0776113E-1,-5.7935253E-2,1.0420467E0,-8.3031106E-1,1.08630694E-1,-2.9158732E-1,-9.1974455E-1,1.4338473E-2,-6.0640836E-1,1.940825E-1,-2.847174E-1,1.3053952E0,1.6050272E-1,-3.7769906E-2,-1.0221866E0,5.759244E-1,-5.633709E-1,-4.756811E-2,-5.777225E-1,2.1573009E-1,-7.203888E-1,4.5379153E-1,-8.430439E-1,-7.33964E-1,2.1934738E-2,1.1418856E-3,8.3625656E-1,-4.3846214E-1,2.8031117E-1,3.9159676E-1,-3.8700193E-1],"categories":[],"categories_nodes":[],"categories_segments":[],"categories_sizes":[],"default_left":[1,1,1,1,1,1,1,0,0,0,1,1,1,1,1,0,0,1,1,1,1,1,0,1,0,1,1,0,0,0,0,1,0,1,0,1,0,0,0,0,0,0,0,0,0,0,0],"id":7,"left_children":[1,3,5,7,9,11,13,-1,-1,-1,15,17,19,21,23,-1,-1,25,27,29,31,33,-1,35,-1,37,39,-1,-1,-1,-1,41,-1,43,-1,45,-1,-1,-1,-1,-1,-1,-1,-1,-1,-1,-1],"loss_changes":[9.73304E0,1.9485378E-1,2.0870757E0,8.967062E-1,7.606263E-1,1.949917E0,9.423187E-1,0E0,0E0,0E0,2.9474964E0,4.4220524E0,2.4191184E0,8.7749815E-1,8.340088E-1,0E0,0E0,2.465969E0,7.197523E-1,9.319401E-1,2.03622E0,4.624204E-1,0E0,1.3774617E0,0E0,5.9239273E0,3.1304727E0,0E0,0E0,0E0,0E0,5.5415225E-1,0E0,7.47922E-1,0E0,9.2022943E-1,0E0,0E0,0E0,0E0,0E0,0E0,0E0,0E0,0E0,0E0,0E0],"parents":[2147483647,0,0,1,1,2,2,3,3,4,4,5,5,6,6,10,10,11,11,12,12,13,13,14,14,17,17,18,18,19,19,20,20,21,21,23,23,25,25,26,26,31,31,33,33,35,35],"right_children":[2,4,6,8,10,12,14,-1,-1,-1,16,18,20,22,24,-1,-1,26,28,30,32,34,-1,36,-1,38,40,-1,-1,-1,-1,42,-1,44,-1,46,-1,-1,-1,-1,-1,-1,-1,-1,-1,-1,-1],"split_conditions":[9.873687E-1,2.489E3,1.5E0,2.3110964E3,1.5987914E2,7.0855E3,1.49E2,1.9468004E-1,-8.2623586E-2,2.9471037E-1,1.6640735E2,6.025E3,2.167649E2,5E-1,3.046E3,-2.1282272E-1,2.4232835E-1,3.44E2,6.393E3,1.225E2,1.5E0,1.135E2,-2.7592337E-1,2.725E2,-1.8192251E-1,5.3205E3,1.2083902E2,3.9161858E-1,4.815082E-2,-1.1330972E-2,-3.06656E-1,2.675E2,-1.6901127E-1,7.55E1,-1.7331675E-1,5E-1,-2.1611665E-1,1.3613747E-1,-2.5291318E-1,-2.2018921E-1,6.5804217E-3,3.425657E-4,2.50877E-1,-1.3153864E-1,8.4093355E-2,1.17479034E-1,-1.1610059E-1],"split_indices":[9,5,10,6,7,5,7,0,0,0,7,5,7,1,6,0,0,6,5,7,2,7,0,7,0,5,7,0,0,0,0,7,0,7,0,4,0,0,0,0,0,0,0,0,0,0,0],"split_type":[0,0,0,0,0,0,0,0,0,0,0,0,0,0,0,0,0,0,0,0,0,0,0,0,0,0,0,0,0,0,0,0,0,0,0,0,0,0,0,0,0,0,0,0,0,0,0],"sum_hessian":[8.755001E1,1.3578936E1,7.397108E1,2.5688004E0,1.1010135E1,5.4016037E1,1.995504E1,1.5126398E0,1.0561607E0,7.330785E0,3.6793501E0,4.418268E1,9.83336E0,1.0638694E1,9.316347E0,1.0677105E0,2.6116397E0,4.1179844E1,3.0028322E0,5.382275E0,4.4510846E0,6.016387E0,4.622307E0,7.2588997E0,2.0574472E0,1.9573008E1,2.1606838E1,1.9419092E0,1.060923E0,1.2823558E0,4.0999193E0,2.7097566E0,1.741328E0,3.8766124E0,2.1397743E0,6.2516723E0,1.0072272E0,1.610306E1,3.469948E0,8.200134E0,1.3406703E1,1.1578181E0,1.5519387E0,1.6145259E0,2.2620866E0,5.110744E0,1.1409286E0],"tree_param":{"num_deleted":"0","num_feature":"11","num_nodes":"47","size_leaf_vector":"0"}},{"base_weights":[-1.8332299E-2,6.6367865E-1,-1.3593586E-1,7.424361E-1,2.0382078E-1,-7.149416E-1,-8.918315E-2,2.4561018E-1,8.567003E-1,6.4369686E-2,2.3903173E-1,-9.153704E-2,-9.7781056E-1,-2.8086068E-2,-5.81278E-1,5.978489E-1,-2.6946032E-1,4.452883E-2,-5.167708E-1,-8.0302733E-1,2.1329445E-1,1.4826791E-1,-4.504444E-1,-8.586245E-1,3.2783464E-1,4.5458696E-4,-1.0227385E0,3.7111083E-1,-2.5772015E-3,-8.6206406E-1,-1.4545874E-1,-2.8746775E-1,-9.493951E-1],"categories":[],"categories_nodes":[],"categories_segments":[],"categories_sizes":[],"default_left":[1,1,1,1,1,1,1,1,0,0,0,0,0,1,1,0,0,1,1,1,0,1,1,1,0,0,0,0,0,0,0,0,0],"id":8,"left_children":[1,3,5,7,9,11,13,15,-1,-1,-1,-1,-1,17,19,-1,-1,21,23,25,-1,27,29,31,-1,-1,-1,-1,-1,-1,-1,-1,-1],"loss_changes":[6.7849035E0,2.9943752E-1,1.8858713E0,3.713436E-1,3.1793118E-4,7.689433E-1,2.0216131E0,7.6308936E-1,0E0,0E0,0E0,0E0,0E0,2.1999812E0,1.4813893E0,0E0,0E0,2.8566206E0,2.5959098E0,1.0637364E0,0E0,1.5361454E0,1.0875214E0,3.724003E-2,0E0,0E0,0E0,0E0,0E0,0E0,0E0,0E0,0E0],"parents":[2147483647,0,0,1,1,2,2,3,3,4,4,5,5,6,6,7,7,13,13,14,14,17,17,18,18,19,19,21,21,22,22,23,23],"right_children":[2,4,6,8,10,12,14,16,-1,-1,-1,-1,-1,18,20,-1,-1,22,24,26,-1,28,30,32,-1,-1,-1,-1,-1,-1,-1,-1,-1],"split_conditions":[9.873687E-1,1.5E0,6.05E1,2.489E3,1.63E2,2.3805E3,5E-1,2.3995E3,2.570101E-1,1.9310907E-2,7.170952E-2,-2.7461113E-2,-2.933432E-1,3.1376477E3,5E-1,1.7935467E-1,-8.08381E-2,5E-1,2.4627333E2,1.21E2,6.3988335E-2,5E-1,3.414E3,1.4E2,9.83504E-2,1.363761E-4,-3.0682155E-1,1.1133325E-1,-7.731605E-4,-2.5861922E-1,-4.3637626E-2,-8.624033E-2,-2.8481856E-1],"split_indices":[9,2,7,5,7,5,4,6,0,0,0,0,0,6,3,0,0,0,7,7,0,1,5,7,0,0,0,0,0,0,0,0,0],"split_type":[0,0,0,0,0,0,0,0,0,0,0,0,0,0,0,0,0,0,0,0,0,0,0,0,0,0,0,0,0,0,0,0,0],"sum_hessian":[8.246769E1,1.1446038E1,7.1021645E1,9.247736E0,2.1983018E0,4.2384806E0,6.6783165E1,2.3180857E0,6.929651E0,1.0132995E0,1.1850022E0,1.6570178E0,2.5814629E0,6.0347652E1,6.435517E0,1.2812029E0,1.0368826E0,5.333182E1,7.01583E0,5.023044E0,1.4124724E0,4.4670082E1,8.661737E0,4.9825473E0,2.0332828E0,1.2928894E0,3.730155E0,1.7442352E1,2.722773E1,2.9090314E0,5.752706E0,1.2546802E0,3.7278671E0],"tree_param":{"num_deleted":"0","num_feature":"11","num_nodes":"33","size_leaf_vector":"0"}},{"base_weights":[-2.1469949E-2,5.888772E-1,-1.16171576E-1,6.982843E-1,1.8695058E-1,-2.7860995E-2,-3.5318702E-1,1.00077644E-1,7.684363E-1,3.9609185E-1,-1.3416125E-1,4.6953708E-2,-3.5191035E-1,-5.6268483E-1,-1.2933496E-1,8.737572E-1,1.2213442E-1,-3.3051264E-2,8.5383E-1,-6.965058E-1,1.0578477E-1,-1.5200101E-1,-7.807058E-1,2.3124978E-1,-2.7260253E-1,4.037247E-1,-1.0956448E-1,1.0376226E0,1.654441E-1,-1.914546E-1,-1.0019068E0,4.9247915E-1,-4.7589126E-1,-4.399799E-1,1.966836E-1,-8.835177E-1,-2.9349363E-1,5.6873524E-1,-1.7965367E-1,-5.958337E-1,7.771229E-2,-4.9379402E-1,1.0230654E0,7.6102845E-2,-4.4653147E-1,-3.5981363E-1,6.260711E-2,-7.612411E-3,7.193953E-1,-8.5789454E-1,-9.366089E-2,4.8564917E-1,-1.8469815E-1],"categories":[],"categories_nodes":[],"categories_segments":[],"categories_sizes":[],"default_left":[1,1,1,1,1,1,1,0,1,0,0,1,1,1,1,0,0,1,1,1,1,1,1,1,1,1,1,0,0,1,0,1,0,0,0,0,0,0,0,1,1,0,0,0,0,0,0,0,0,0,0,0,0],"id":9,"left_children":[1,3,5,7,9,11,13,-1,15,-1,-1,17,19,21,23,-1,-1,25,27,29,31,33,35,37,39,41,43,-1,-1,45,-1,47,-1,-1,-1,-1,-1,-1,-1,49,51,-1,-1,-1,-1,-1,-1,-1,-1,-1,-1,-1,-1],"loss_changes":[4.6921782E0,3.4919E-1,1.4571104E0,2.6762152E-1,3.0161572E-1,1.2807333E0,8.1540537E-1,0E0,3.8326502E-1,0E0,0E0,2.8200104E0,1.6349014E0,7.3057866E-1,6.0311264E-1,0E0,0E0,1.3913163E0,3.2664108E-1,6.995399E-1,1.385965E0,5.4150033E-1,3.893161E-2,5.894306E-1,9.454487E-1,3.9638376E0,2.2291358E0,0E0,0E0,1.685513E-1,0E0,4.1022873E-1,0E0,0E0,0E0,0E0,0E0,0E0,0E0,4.7833884E-1,5.923175E-1,0E0,0E0,0E0,0E0,0E0,0E0,0E0,0E0,0E0,0E0,0E0,0E0],"parents":[2147483647,0,0,1,1,2,2,3,3,4,4,5,5,6,6,8,8,11,11,12,12,13,13,14,14,17,17,18,18,19,19,20,20,21,21,22,22,23,23,24,24,25,25,26,26,29,29,31,31,39,39,40,40],"right_children":[2,4,6,8,10,12,14,-1,16,-1,-1,18,20,22,24,-1,-1,26,28,30,32,34,36,38,40,42,44,-1,-1,46,-1,48,-1,-1,-1,-1,-1,-1,-1,50,52,-1,-1,-1,-1,-1,-1,-1,-1,-1,-1,-1,-1],"split_conditions":[9.873687E-1,1.5E0,1.5E0,1.8262946E2,4.633E3,7.0855E3,1.4520609E2,3.0023294E-2,1.5E0,1.1882756E-1,-4.0248375E-2,6.025E3,2.167649E2,9.65E1,5E-1,2.6212716E-1,3.6640327E-2,3.5817E2,6.393E3,1.4820609E2,1.5E0,7.7E1,4.209E3,5.8285E3,5.854E3,1.1733902E2,1.39E2,3.1128678E-1,4.9633235E-2,1.12535E4,-3.0057204E-1,2.675E2,-1.4276738E-1,-1.3199398E-1,5.900508E-2,-2.6505533E-1,-8.804809E-2,1.7062058E-1,-5.3896103E-2,5E-1,1.875E2,-1.4813821E-1,3.0691963E-1,2.2830855E-2,-1.3395944E-1,-1.0794409E-1,1.8782133E-2,-2.2837233E-3,2.158186E-1,-2.573684E-1,-2.8098268E-2,1.4569476E-1,-5.5409446E-2],"split_indices":[9,10,10,8,5,5,7,0,2,0,0,5,7,7,1,0,0,8,5,7,2,7,5,5,5,7,7,0,0,5,0,7,0,0,0,0,0,0,0,2,7,0,0,0,0,0,0,0,0,0,0,0,0],"split_type":[0,0,0,0,0,0,0,0,0,0,0,0,0,0,0,0,0,0,0,0,0,0,0,0,0,0,0,0,0,0,0,0,0,0,0,0,0,0,0,0,0,0,0,0,0,0,0,0,0,0,0,0,0],"sum_hessian":[7.899477E1,9.909608E0,6.908516E1,7.209729E0,2.6998792E0,5.1146004E1,1.7939156E1,1.0114427E0,6.1982865E0,1.4935944E0,1.2062846E0,4.224729E1,8.898715E0,8.484794E0,9.454362E0,5.027135E0,1.1711514E0,3.9308712E1,2.9385765E0,4.778927E0,4.1197886E0,3.530886E0,4.953907E0,2.5136755E0,6.940686E0,5.222056E0,3.408666E1,1.9189167E0,1.0196596E0,2.413893E0,2.3650339E0,2.5667648E0,1.5530237E0,1.7903812E0,1.7405049E0,3.4190106E0,1.5348965E0,1.1692398E0,1.3444357E0,3.2453706E0,3.6953158E0,2.214957E0,3.0070987E0,2.2476408E1,1.1610249E1,1.2014699E0,1.212423E0,1.1028001E0,1.4639647E0,1.6670493E0,1.5783213E0,1.1135283E0,2.5817873E0],"tree_param":{"num_deleted":"0","num_feature":"11","num_nodes":"53","size_leaf_vector":"0"}},{"base_weights":[-1.656381E-2,5.21616E-1,-9.293624E-2,6.344159E-1,1.572073E-1,-6.0606706E-1,-5.3634122E-2,1.0159376E-1,7.155386E-1,-1.5047365E-1,3.6871406E-1,-6.34809E-2,-8.629238E-1,-1.1717601E-3,-5.0711495E-1,8.397927E-1,7.9150334E-2,-3.916768E-2,7.0913374E-1,-7.2353655E-1,1.8406965E-1,4.505024E-2,-2.9487157E-1,-5.8394782E-2,-9.282409E-1,4.2354658E-1,-6.19472E-2,-8.632122E-1,-8.4625974E-2],"categories":[],"categories_nodes":[],"categories_segments":[],"categories_sizes":[],"default_left":[1,1,1,1,1,1,1,0,1,0,0,0,0,1,1,0,0,1,0,1,0,1,1,0,0,0,0,0,0],"id":10,"left_children":[1,3,5,7,9,11,13,-1,15,-1,-1,-1,-1,17,19,-1,-1,21,-1,23,-1,25,27,-1,-1,-1,-1,-1,-1],"loss_changes":[3.205797E0,2.9888225E-1,1.3412597E0,2.3315E-1,2.911674E-1,6.0709524E-1,1.5308089E0,0E0,4.0602636E-1,0E0,0E0,0E0,0E0,1.6119462E0,1.1312782E0,0E0,0E0,1.2335514E0,0E0,6.6526604E-1,0E0,1.7876296E0,1.6203312E0,0E0,0E0,0E0,0E0,0E0,0E0],"parents":[2147483647,0,0,1,1,2,2,3,3,4,4,5,5,6,6,8,8,13,13,14,14,17,17,19,19,21,21,22,22],"right_children":[2,4,6,8,10,12,14,-1,16,-1,-1,-1,-1,18,20,-1,-1,22,-1,24,-1,26,28,-1,-1,-1,-1,-1,-1],"split_conditions":[9.873687E-1,1.5E0,6.05E1,9.051225E1,5E-1,2.3805E3,5E-1,3.047813E-2,1.5E0,-4.51421E-2,1.10614225E-1,-1.904427E-2,-2.5887716E-1,3.60555E2,5E-1,2.5193784E-1,2.3745101E-2,1.5E0,2.1274014E-1,1.21E2,5.52209E-2,2.7595E3,3.1055E3,-1.7518435E-2,-2.7847227E-1,1.2706397E-1,-1.858416E-2,-2.5896367E-1,-2.5387794E-2],"split_indices":[9,10,7,7,1,5,4,0,2,0,0,0,0,8,3,0,0,10,0,7,0,5,5,0,0,0,0,0,0],"split_type":[0,0,0,0,0,0,0,0,0,0,0,0,0,0,0,0,0,0,0,0,0,0,0,0,0,0,0,0,0],"sum_hessian":[7.581651E1,8.697467E0,6.711904E1,6.0758023E0,2.6216648E0,3.7491527E0,6.3369892E1,1.1004282E0,4.975374E0,1.1855693E0,1.4360955E0,1.6052839E0,2.143869E0,5.769755E1,5.6723404E0,3.8952146E0,1.0801594E0,5.566477E1,2.032782E0,4.284107E0,1.3882332E0,4.249316E1,1.317161E1,1.3106624E0,2.9734447E0,8.713006E0,3.3780155E1,2.71814E0,1.045347E1],"tree_param":{"num_deleted":"0","num_feature":"11","num_nodes":"29","size_leaf_vector":"0"}},{"base_weights":[-1.4371595E-2,4.5763585E-1,-7.6431E-2,2.3915821E-1,7.3994815E-1,-6.866798E-4,-3.3357137E-1,4.9316454E-1,-2.9843178E-1,8.631496E-2,-3.448607E-1,4.3324345E-1,-4.701317E-1,-6.23118E-2,7.558388E-1,-6.077207E-3,6.3683635E-1,-1.2675123E-1,-8.7940454E-1,3.105727E-1,-5.620759E-1,4.080027E-2,-7.6779264E-1,8.50641E-1,-1.4802091E-1,-4.84572E-1,7.467071E-1,-3.352598E-1,-7.615609E-1,-6.022178E-1,8.818132E-2,1.005824E0,2.026753E-1,-6.786437E-1,2.7082095E-1,1.097897E-1,-8.868901E-1,-9.679724E-1,-7.984867E-2],"categories":[],"categories_nodes":[],"categories_segments":[],"categories_sizes":[],"default_left":[1,1,1,1,0,1,1,1,0,1,1,0,1,0,0,1,1,1,0,0,1,1,0,1,0,1,0,1,1,0,0,0,0,0,0,0,0,0,0],"id":11,"left_children":[1,3,5,7,-1,9,11,13,-1,15,17,-1,19,-1,-1,21,23,25,-1,-1,27,29,-1,31,-1,33,-1,35,37,-1,-1,-1,-1,-1,-1,-1,-1,-1,-1],"loss_changes":[2.2147193E0,3.6519372E-1,1.2973809E0,1.0255817E0,0E0,1.6007835E0,1.7908975E0,7.3953176E-1,0E0,2.1746938E0,1.146133E0,0E0,1.1325281E0,0E0,0E0,1.3716457E0,1.1567125E0,3.1213179E0,0E0,0E0,3.0099964E-1,1.1593472E0,0E0,2.9648757E-1,0E0,1.1909045E0,0E0,1.9484568E0,7.325666E-1,0E0,0E0,0E0,0E0,0E0,0E0,0E0,0E0,0E0,0E0],"parents":[2147483647,0,0,1,1,2,2,3,3,5,5,6,6,7,7,9,9,10,10,12,12,15,15,16,16,17,17,20,20,21,21,23,23,25,25,27,27,28,28],"right_children":[2,4,6,8,-1,10,12,14,-1,16,18,-1,20,-1,-1,22,24,26,-1,-1,28,30,-1,32,-1,34,-1,36,38,-1,-1,-1,-1,-1,-1,-1,-1,-1,-1],"split_conditions":[9.873687E-1,1.4608075E-2,1.5E0,4.2825E3,2.2198446E-1,5E-1,2.802E3,2.489E3,-8.952954E-2,2.1941031E2,5.0955E3,1.2997304E-1,9.5E1,-1.869354E-2,2.2675166E-1,5.401E3,4.576675E3,4.198E3,-2.6382136E-1,9.317182E-2,9.5601654E2,6.05E1,-2.303378E-1,2.9760495E2,-4.4406272E-2,1.23E2,2.2401214E-1,6.4115E3,5.972E3,-1.8066534E-1,2.6454397E-2,3.017472E-1,6.080259E-2,-2.0359312E-1,8.124629E-2,3.2936912E-2,-2.6606706E-1,-2.9039174E-1,-2.3954602E-2],"split_indices":[9,9,2,5,0,0,5,5,0,7,5,0,7,0,0,6,6,5,0,0,6,7,0,7,0,7,0,5,5,0,0,0,0,0,0,0,0,0,0],"split_type":[0,0,0,0,0,0,0,0,0,0,0,0,0,0,0,0,0,0,0,0,0,0,0,0,0,0,0,0,0,0,0,0,0,0,0,0,0,0,0],"sum_hessian":[7.3412964E1,7.790014E0,6.562295E1,5.432791E0,2.3572226E0,5.146568E1,1.415727E1,3.745646E0,1.6871452E0,4.167909E1,9.78659E0,1.811693E0,1.2345577E1,1.4474686E0,2.2981775E0,3.6536285E1,5.1428022E0,7.8291774E0,1.9574126E0,1.050223E0,1.1295354E1,3.5309696E1,1.2265922E0,3.975902E0,1.1669E0,5.869787E0,1.95939E0,6.539976E0,4.7553782E0,1.6196046E0,3.369009E1,2.762116E0,1.2137861E0,4.75083E0,1.1189574E0,4.0629797E0,2.4769967E0,3.3278465E0,1.4275316E0],"tree_param":{"num_deleted":"0","num_feature":"11","num_nodes":"39","size_leaf_vector":"0"}},{"base_weights":[-1.5449599E-2,4.0396827E-1,-6.724473E-2,2.0731682E-1,7.15989E-1,-2.0438884E-1,4.6672046E-2,5.2553123E-1,-7.4804306E-1,3.0868627E-2,-5.737639E-1,5.8749324E-1,-6.827897E-2,8.0361044E-1,-3.0414152E-1,2.8642932E-1,-7.628996E-1,-8.5335684E-1,1.7224677E-1,7.864579E-1,-2.1623777E-1,5.36512E-3,-6.7578244E-1,-1.7285004E-1,5.30537E-1,-1.8656571E-1,-8.6873907E-1,-1.0508981E0,8.649385E-2,5.9291685E-1,-3.4929594E-1,1.0948156E0,2.1935234E-2,6.021543E-1,-7.3042184E-2,2.795008E-1,-7.130606E-1,9.0507597E-1,-2.3928285E-3,-1.0102558E0,-2.7437437E-1,1.3349128E0,3.0930045E-1,3.3297222E-2,8.540688E-1,-4.5688128E-1,1.4609247E-1],"categories":[],"categories_nodes":[],"categories_segments":[],"categories_sizes":[],"default_left":[1,1,1,1,0,1,1,1,0,1,1,1,1,0,0,1,1,1,1,1,0,1,0,1,1,0,1,0,0,0,0,1,0,1,1,0,0,0,0,0,0,0,0,0,0,0,0],"id":12,"left_children":[1,3,5,7,-1,9,11,13,-1,15,17,19,21,-1,-1,23,25,27,29,31,-1,33,-1,35,37,-1,39,-1,-1,-1,-1,41,-1,43,45,-1,-1,-1,-1,-1,-1,-1,-1,-1,-1,-1,-1],"loss_changes":[1.5927514E0,3.463838E-1,1.0250897E0,2.3248646E0,0E0,2.596911E0,2.2982275E0,1.4796405E0,0E0,4.089237E0,2.566417E0,1.204895E0,1.3838973E0,0E0,0E0,1.7914592E0,1.3804412E-1,1.6885529E0,1.0834306E0,1.2496672E0,0E0,1.3779533E0,0E0,1.6693577E0,2.027175E0,0E0,4.9443483E-2,0E0,0E0,0E0,0E0,3.0935526E-1,0E0,4.6147192E-1,2.261194E0,0E0,0E0,0E0,0E0,0E0,0E0,0E0,0E0,0E0,0E0,0E0,0E0],"parents":[2147483647,0,0,1,1,2,2,3,3,5,5,6,6,7,7,9,9,10,10,11,11,12,12,15,15,16,16,17,17,18,18,19,19,21,21,23,23,24,24,26,26,31,31,33,33,34,34],"right_children":[2,4,6,8,-1,10,12,14,-1,16,18,20,22,-1,-1,24,26,28,30,32,-1,34,-1,36,38,-1,40,-1,-1,-1,-1,42,-1,44,46,-1,-1,-1,-1,-1,-1,-1,-1,-1,-1,-1,-1],"split_conditions":[9.873687E-1,1.6640735E2,1.3227812E2,1.585101E2,2.147967E-1,9.45E1,1.385E2,2.2727334E3,-2.2441293E-1,1.14E2,3.5475E3,2.2045E3,5E-1,2.4108315E-1,-9.124246E-2,7.536981E1,4.1895E3,2.8125E3,5E-1,5E-1,-6.487133E-2,2.61E3,-2.0273474E-1,6.55E1,9.75E1,-5.5969715E-2,5.5955E3,-3.1526944E-1,2.5948156E-2,1.7787506E-1,-1.0478879E-1,1.3554474E2,6.5805702E-3,2.4585E3,1.63E2,8.385025E-2,-2.139182E-1,2.715228E-1,-7.1784854E-4,-3.0307674E-1,-8.2312316E-2,4.0047386E-1,9.279014E-2,9.989167E-3,2.5622067E-1,-1.370644E-1,4.3827742E-2],"split_indices":[9,7,7,7,0,6,7,6,0,7,5,6,4,0,0,7,5,6,2,2,0,5,0,7,7,0,5,0,0,0,0,7,0,5,7,0,0,0,0,0,0,0,0,0,0,0,0],"split_type":[0,0,0,0,0,0,0,0,0,0,0,0,0,0,0,0,0,0,0,0,0,0,0,0,0,0,0,0,0,0,0,0,0,0,0,0,0,0,0,0,0,0,0,0,0,0,0],"sum_hessian":[7.1067795E1,7.064306E0,6.400349E1,5.354229E0,1.7100767E0,2.8680689E1,3.53228E1,4.353923E0,1.000306E0,1.8081127E1,1.0599562E1,5.471182E0,2.9851618E1,3.284484E0,1.0694392E0,1.4161015E1,3.9201117E0,7.605316E0,2.9942455E0,4.4027634E0,1.0684186E0,2.7508137E1,2.3434815E0,5.01583E0,9.1451845E0,1.0368447E0,2.883267E0,6.186798E0,1.4185181E0,1.581652E0,1.4125935E0,2.8295045E0,1.573259E0,2.418691E0,2.5089445E1,2.9925747E0,2.0232553E0,4.9606066E0,4.184578E0,1.7636278E0,1.119639E0,1.6314361E0,1.1980684E0,1.0898465E0,1.3288444E0,8.723797E0,1.6365648E1],"tree_param":{"num_deleted":"0","num_feature":"11","num_nodes":"47","size_leaf_vector":"0"}},{"base_weights":[-1.37413135E-2,3.4864655E-1,-5.549599E-2,1.5060237E-1,6.4268583E-1,-1.7814359E-1,4.322305E-2,3.807529E-1,-2.5457445E-1,-2.3277706E-2,-5.7824343E-1,4.8434874E-1,-5.130085E-2,-1.12133704E-1,6.695515E-1,2.0633504E-1,-5.048926E-1,-6.8624306E-1,1.6649839E-2,6.482132E-1,-1.8643905E-1,-2.4036936E-1,1.4374685E-1,-1.3204618E-2,6.2762505E-1,-7.914742E-1,1.6667001E-1,-8.7991214E-1,1.3541148E-2,9.0536207E-1,1.7893255E-2,4.0007994E-1,-3.560635E-1,4.5159236E-1,-4.1065803E-1,7.734036E-1,-2.890535E-1,1.0822982E0,-1.570237E-1,-8.861446E-1,-2.4760574E-1,1.1139154E0,1.8666145E-1,-7.84493E-1,-1.1929706E-1,-1.6802567E-1,6.313166E-1,-7.5898564E-1,2.233357E-1],"categories":[],"categories_nodes":[],"categories_segments":[],"categories_sizes":[],"default_left":[1,1,1,1,0,1,1,1,0,1,1,1,1,0,0,1,1,1,0,1,0,1,1,1,1,1,0,0,0,1,0,0,1,1,1,0,0,0,0,0,0,0,0,0,0,0,0,0,0],"id":13,"left_children":[1,3,5,7,-1,9,11,13,-1,15,17,19,21,-1,-1,23,25,27,-1,29,-1,31,33,35,37,39,-1,-1,-1,41,-1,-1,43,45,47,-1,-1,-1,-1,-1,-1,-1,-1,-1,-1,-1,-1,-1,-1],"loss_changes":[1.0685773E0,3.2839203E-1,7.7096385E-1,6.255679E-1,0E0,1.740556E0,1.5147525E0,6.467416E-1,0E0,2.4762757E0,5.162592E-1,8.2446253E-1,1.153064E0,0E0,0E0,1.4173975E0,1.5205309E0,9.1640854E-1,0E0,8.538554E-1,0E0,1.3113642E0,2.840237E0,2.6093657E0,2.0393667E0,4.9923897E-2,0E0,0E0,0E0,3.6049747E-1,0E0,0E0,1.3154768E0,1.2728803E0,1.511597E0,0E0,0E0,0E0,0E0,0E0,0E0,0E0,0E0,0E0,0E0,0E0,0E0,0E0,0E0],"parents":[2147483647,0,0,1,1,2,2,3,3,5,5,6,6,7,7,9,9,10,10,11,11,12,12,15,15,16,16,17,17,19,19,21,21,22,22,23,23,24,24,25,25,29,29,32,32,33,33,34,34],"right_children":[2,4,6,8,-1,10,12,14,-1,16,18,20,22,-1,-1,24,26,28,-1,30,-1,32,34,36,38,40,-1,-1,-1,42,-1,-1,44,46,48,-1,-1,-1,-1,-1,-1,-1,-1,-1,-1,-1,-1,-1,-1],"split_conditions":[9.873687E-1,1.4608075E-2,1.3227812E2,4.2825E3,1.9280575E-1,1.145E2,1.385E2,2.489E3,-7.637234E-2,1.21E2,2.4952036E3,2.2045E3,1.534E3,-3.3640113E-2,2.0086546E-1,4.198E3,1.095E2,1.2618886E2,4.9949517E-3,5E-1,-5.5931717E-2,3.999E3,3.1461477E3,2.389E3,4.7365E3,3.1305E3,5.0001007E-2,-2.6397365E-1,4.062345E-3,4.811E3,5.3679766E-3,1.2002399E-1,6.093E3,1.4824193E2,2.4627333E2,2.3202108E-1,-8.6716056E-2,3.2468945E-1,-4.710711E-2,-2.658434E-1,-7.428172E-2,3.3417463E-1,5.5998437E-2,-2.3534791E-1,-3.5789117E-2,-5.0407704E-2,1.89395E-1,-2.276957E-1,6.700071E-2],"split_indices":[9,9,7,5,0,7,7,5,0,6,6,6,6,0,0,5,7,7,0,2,0,5,6,5,5,5,0,0,0,5,0,0,5,7,7,0,0,0,0,0,0,0,0,0,0,0,0,0,0],"split_type":[0,0,0,0,0,0,0,0,0,0,0,0,0,0,0,0,0,0,0,0,0,0,0,0,0,0,0,0,0,0,0,0,0,0,0,0,0,0,0,0,0,0,0,0,0,0,0,0,0],"sum_hessian":[6.834122E1,6.301424E0,6.2039795E1,4.668939E0,1.6324846E0,2.7308018E1,3.4731777E1,3.0160356E0,1.6529036E0,2.0450474E1,6.8575454E0,5.401214E0,2.9330563E1,1.3402989E0,1.6757368E0,1.4235291E1,6.2151823E0,5.67392E0,1.1836252E0,4.367859E0,1.0333552E0,1.4775573E1,1.455499E1,9.995279E0,4.240012E0,4.231067E0,1.9841152E0,4.242406E0,1.4315141E0,2.7923305E0,1.5755281E0,1.884644E0,1.2890928E1,9.477722E0,5.077267E0,2.1267982E0,7.8684807E0,2.4442968E0,1.7957151E0,3.067735E0,1.1633321E0,1.7380728E0,1.0542579E0,3.7649245E0,9.126004E0,2.1456077E0,7.332115E0,3.1496453E0,1.9276221E0],"tree_param":{"num_deleted":"0","num_feature":"11","num_nodes":"49","size_leaf_vector":"0"}},{"base_weights":[-7.5864578E-3,5.2397415E-2,-2.1843347E-1,9.475579E-2,-6.589305E-1,5.2565134E-1,-3.6336732E-1,2.0303179E-2,4.628951E-1,2.6261503E-1,-4.4337538E-1,6.7714036E-2,-9.3843997E-1,1.2503941E-1,1.1980082E0,-5.137457E-1,1.4197546E-1,1.6598882E-1,-2.8471443E-1,-9.297271E-2,5.423762E-1,-2.2764172E-1,-8.2407206E-1,9.970451E-2,7.504289E-1,-3.2087367E-2,-5.8600074E-1,5.3218395E-1,-4.3736926E-1,4.4606734E-2,-6.9593763E-1,-9.5794505E-1,-2.4032748E-1],"categories":[],"categories_nodes":[],"categories_segments":[],"categories_sizes":[],"default_left":[1,1,1,1,0,0,1,1,1,0,1,1,0,1,0,1,0,1,1,1,0,1,1,0,0,0,0,0,0,0,0,0,0],"id":14,"left_children":[1,3,5,7,-1,-1,9,11,13,-1,15,17,-1,19,-1,21,-1,23,25,27,-1,29,31,-1,-1,-1,-1,-1,-1,-1,-1,-1,-1],"loss_changes":[8.5245353E-1,1.6465666E0,1.8001481E0,1.3746084E0,0E0,0E0,7.7152514E-1,2.0202124E0,1.9484456E0,0E0,5.659809E-1,1.5002153E0,0E0,6.7864305E-1,0E0,7.803061E-1,0E0,1.2204307E0,7.0545393E-1,1.3930389E0,0E0,9.3035316E-1,1.4861727E-1,0E0,0E0,0E0,0E0,0E0,0E0,0E0,0E0,0E0,0E0],"parents":[2147483647,0,0,1,1,2,2,3,3,6,6,7,7,8,8,10,10,11,11,13,13,15,15,17,17,18,18,19,19,21,21,22,22],"right_children":[2,4,6,8,-1,-1,10,12,14,-1,16,18,-1,20,-1,22,-1,24,26,28,-1,30,32,-1,-1,-1,-1,-1,-1,-1,-1,-1,-1],"split_conditions":[1.5E0,5.475679E3,2.952E3,2.536E3,-1.9767915E-1,1.5769541E-1,9.5E1,2.4545E3,5E-1,7.878451E-2,3.1E2,5E-1,-2.81532E-1,5.738E3,3.5940248E-1,9.5601654E2,4.259264E-2,2.5341429E2,1.18E2,2.2395E3,1.6271287E-1,1.8411362E2,1.705091E2,2.9911354E-2,2.2512868E-1,-9.626211E-3,-1.7580023E-1,1.5965518E-1,-1.3121079E-1,1.338202E-2,-2.087813E-1,-2.8738353E-1,-7.209825E-2],"split_indices":[2,6,5,6,0,0,7,6,2,0,7,0,0,5,0,6,0,7,7,5,0,7,7,0,0,0,0,0,0,0,0,0,0],"split_type":[0,0,0,0,0,0,0,0,0,0,0,0,0,0,0,0,0,0,0,0,0,0,0,0,0,0,0,0,0,0,0,0,0],"sum_hessian":[6.549642E1,5.1575264E1,1.3921158E1,4.9494724E1,2.0805368E0,1.8412769E0,1.2079881E1,4.20464E1,7.4483266E0,1.1103281E0,1.0969553E1,4.0950714E1,1.0956838E0,5.9046593E0,1.5436674E0,9.901529E0,1.0680239E0,3.2435173E1,8.515543E0,4.3890777E0,1.5155817E0,6.053806E0,3.8477232E0,3.018261E1,2.2525635E0,5.2336526E0,3.2818904E0,1.3653667E0,3.0237107E0,4.4003596E0,1.653446E0,2.6084747E0,1.2392486E0],"tree_param":{"num_deleted":"0","num_feature":"11","num_nodes":"33","size_leaf_vector":"0"}},{"base_weights":[-9.337774E-3,3.1321025E-1,-4.621199E-2,1.2208693E-1,6.310877E-1,-6.9575086E-2,4.1520154E-1,4.425066E-1,-6.543391E-1,-1.9028603E-1,2.872626E-2,7.403642E-1,-2.8363848E-1,-3.6425135E-1,1.5280466E-1,2.7476105E-1,-1.2092032E-1,1.9892642E-2,-5.8316356E-1,7.910203E-1,-3.1064314E-1,4.5498863E-1,-3.7342396E-1,-5.4897535E-1,-7.0060226E-3,-2.3358041E-1,6.176853E-1,1.15209244E-1,-7.8916E-1,1.1107978E0,3.879716E-2,2.0867389E-2,-5.817477E-1,6.8442523E-1,-3.888277E-2,-6.6560465E-1,8.597798E-2,-1.6407178E-1,-7.4864763E-1,4.269343E-1,-1.7824024E-1],"categories":[],"categories_nodes":[],"categories_segments":[],"categories_sizes":[],"default_left":[1,1,1,1,0,1,0,1,0,1,1,0,0,1,1,1,1,1,1,1,1,1,1,1,1,0,0,0,0,0,0,0,0,0,0,0,0,0,0,0,0],"id":15,"left_children":[1,3,5,7,-1,9,-1,11,-1,13,15,-1,-1,17,19,21,23,25,27,29,31,33,35,37,39,-1,-1,-1,-1,-1,-1,-1,-1,-1,-1,-1,-1,-1,-1,-1,-1],"loss_changes":[7.9113746E-1,3.377754E-1,6.7000335E-1,1.6588438E0,0E0,6.8732154E-1,0E0,1.1817083E0,0E0,1.6028787E0,1.2312914E0,0E0,0E0,1.4829428E0,3.0338192E0,1.6432748E0,1.0166265E0,1.2531804E0,1.6990323E0,9.785943E-1,5.6745684E-1,1.1958933E0,4.992572E-1,2.1423686E-1,1.3795625E0,0E0,0E0,0E0,0E0,0E0,0E0,0E0,0E0,0E0,0E0,0E0,0E0,0E0,0E0,0E0,0E0],"parents":[2147483647,0,0,1,1,2,2,3,3,5,5,7,7,9,9,10,10,13,13,14,14,15,15,16,16,17,17,18,18,19,19,20,20,21,21,22,22,23,23,24,24],"right_children":[2,4,6,8,-1,10,-1,12,-1,14,16,-1,-1,18,20,22,24,26,28,30,32,34,36,38,40,-1,-1,-1,-1,-1,-1,-1,-1,-1,-1,-1,-1,-1,-1,-1,-1],"split_conditions":[9.873687E-1,1.6640735E2,3.60555E2,1.5987914E2,1.8932633E-1,1.3227812E2,1.2456047E-1,2.4018708E3,-1.9630173E-1,4.228E3,1.515E2,2.2210927E-1,-8.5091546E-2,8.25E1,4.6155E3,2.2045E3,1.63E2,3.3455E3,2.294E3,1.145E2,5E-1,5.3165E3,2.892E3,3.44E2,1.8361362E2,-7.0074126E-2,1.853056E-1,3.4562774E-2,-2.3674801E-1,3.3323935E-1,1.1639148E-2,6.2602167E-3,-1.7452432E-1,2.0532759E-1,-1.1664831E-2,-1.996814E-1,2.5793394E-2,-4.9221538E-2,-2.245943E-1,1.280803E-1,-5.3472076E-2],"split_indices":[9,7,8,7,0,7,0,6,0,5,7,0,0,7,5,6,7,5,5,7,1,5,6,6,7,0,0,0,0,0,0,0,0,0,0,0,0,0,0,0,0],"split_type":[0,0,0,0,0,0,0,0,0,0,0,0,0,0,0,0,0,0,0,0,0,0,0,0,0,0,0,0,0,0,0,0,0,0,0,0,0,0,0,0,0],"sum_hessian":[6.430037E1,5.8279357E0,5.847243E1,4.503989E0,1.3239467E0,5.6462723E1,2.009706E0,3.4926825E0,1.0113068E0,2.4922699E1,3.1540026E1,2.4628596E0,1.0298227E0,1.6496443E1,8.426256E0,1.1612228E1,1.9927797E1,6.3183036E0,1.017814E1,3.2474139E0,5.1788416E0,9.319111E0,2.2931178E0,3.3858006E0,1.6541996E1,4.8648124E0,1.4534913E0,2.4187555E0,7.759384E0,1.9442202E0,1.3031938E0,2.7451103E0,2.4337316E0,6.099599E0,3.2195122E0,1.1273012E0,1.1658165E0,1.7787166E0,1.607084E0,4.258037E0,1.2283958E1],"tree_param":{"num_deleted":"0","num_feature":"11","num_nodes":"41","size_leaf_vector":"0"}},{"base_weights":[-5.6954254E-3,5.523595E-2,-1.7739448E-1,1.0785791E-1,-2.5893086E-1,-2.7596295E-1,2.6759207E-1,-3.0643883E-1,1.6215023E-1,9.374517E-2,-3.871797E-1,-7.45356E-2,-5.635195E-1,6.568609E-1,-3.0705655E-1,-7.3640794E-1,4.1165692E-1,7.580787E-1,8.4297635E-2,-5.8532584E-1,-7.694453E-2,2.5480196E-1,-4.1814235E-1,-8.2518065E-1,-1.691942E-1,-8.902076E-1,-1.9770117E-1,2.9012462E-1,-9.7675845E-2,-4.2079636E-1,2.8529376E-1,-2.735695E-1,4.9676052E-1,-6.800748E-1,1.5681364E-1,2.6713565E-1,-5.679108E-1,5.426786E-1,-6.2240418E-2,-3.1556875E-1,4.4014823E-1,1.8962306E-1,6.706371E-1],"categories":[],"categories_nodes":[],"categories_segments":[],"categories_sizes":[],"default_left":[1,1,1,1,1,1,1,1,1,0,1,1,1,0,0,1,0,0,1,0,1,1,1,0,1,0,0,1,1,0,0,0,1,0,0,0,0,0,0,0,0,0,0],"id":16,"left_children":[1,3,5,7,9,11,13,15,17,-1,19,21,23,-1,-1,25,-1,-1,27,-1,29,31,33,-1,35,-1,-1,37,39,-1,-1,-1,41,-1,-1,-1,-1,-1,-1,-1,-1,-1,-1],"loss_changes":[6.689919E-1,8.0936867E-1,8.081347E-1,9.762422E-1,3.5632175E-1,7.80342E-1,9.9435437E-1,1.8836125E0,1.6561255E0,0E0,2.859007E-1,1.1817636E0,4.4809067E-1,0E0,0E0,1.18983746E-1,0E0,0E0,1.2986377E0,0E0,5.248145E-1,8.3557254E-1,8.639618E-1,0E0,7.6581925E-1,0E0,0E0,1.4724497E0,2.3360374E0,0E0,0E0,0E0,9.226823E-2,0E0,0E0,0E0,0E0,0E0,0E0,0E0,0E0,0E0,0E0],"parents":[2147483647,0,0,1,1,2,2,3,3,4,4,5,5,6,6,7,7,8,8,10,10,11,11,12,12,15,15,18,18,20,20,21,21,22,22,24,24,27,27,28,28,32,32],"right_children":[2,4,6,8,10,12,14,16,18,-1,20,22,24,-1,-1,26,-1,-1,28,-1,30,32,34,-1,36,-1,-1,38,40,-1,-1,-1,42,-1,-1,-1,-1,-1,-1,-1,-1,-1,-1],"split_conditions":[1.5E0,5E-1,8.3335E3,1.8262946E2,2.656E3,4.7365E3,1.3712E4,5E-1,3.5817E2,2.8123552E-2,5E-1,5E-1,5.9675E3,1.9705828E-1,-9.211697E-2,5.1855E3,1.2349708E-1,2.2742362E-1,1.356406E2,-1.7559776E-1,4.225E3,2.7435E3,2.5415E3,-2.475542E-1,6.476E3,-2.6706228E-1,-5.9310354E-2,5.15E2,2.1941031E2,-1.2623891E-1,8.558813E-2,-8.207085E-2,4.198E3,-2.0402245E-1,4.7044095E-2,8.0140695E-2,-1.7037325E-1,1.6280359E-1,-1.8672125E-2,-9.467063E-2,1.3204448E-1,5.688692E-2,2.0119113E-1],"split_indices":[10,0,5,8,5,5,5,3,8,0,10,1,5,0,0,5,0,0,7,0,5,5,6,0,5,0,0,6,7,0,0,0,5,0,0,0,0,0,0,0,0,0,0],"split_type":[0,0,0,0,0,0,0,0,0,0,0,0,0,0,0,0,0,0,0,0,0,0,0,0,0,0,0,0,0,0,0,0,0,0,0,0,0,0,0,0,0,0,0],"sum_hessian":[6.20092E1,4.626817E1,1.5741031E1,4.0192703E1,6.075467E0,1.3197505E1,2.543525E0,4.1187663E0,3.6073936E1,1.691897E0,4.38357E0,8.50155E0,4.6959553E0,1.4310571E0,1.1124679E0,2.5602703E0,1.558496E0,3.158628E0,3.291531E1,2.133924E0,2.2496462E0,4.4728737E0,4.0286765E0,2.1660182E0,2.5299373E0,1.4840788E0,1.0761915E0,1.5166465E1,1.7748844E1,1.0711803E0,1.1784658E0,1.3638818E0,3.1089916E0,2.6421597E0,1.3865168E0,1.3655634E0,1.1643738E0,8.519849E0,6.646616E0,1.2925488E1,4.823355E0,1.8795302E0,1.2294613E0],"tree_param":{"num_deleted":"0","num_feature":"11","num_nodes":"43","size_leaf_vector":"0"}},{"base_weights":[-8.828725E-3,3.035048E-1,-4.3418854E-2,1.2286858E-1,5.8451074E-1,-4.177622E-1,-1.5630221E-2,4.1592923E-1,-5.2888507E-1,1.2943701E-1,-7.3315626E-1,1.20573476E-1,-1.1720808E-1,-1.4061954E-2,6.5365374E-1,3.811102E-1,-8.293342E-2,-1.5889025E-1,4.2983997E-1,6.103145E-1,-1.8494856E-1,-7.131794E-1,1.1829516E-1,-3.8278624E-2,-5.944428E-1,9.178554E-1,-2.054492E-1,-7.639456E-1,5.856757E-1,-1.0451934E-1,6.469931E-1,-1.5157194E-1,5.8351517E-1,-8.129421E-1,5.5919096E-2],"categories":[],"categories_nodes":[],"categories_segments":[],"categories_sizes":[],"default_left":[1,1,1,1,0,1,1,1,0,0,0,1,1,0,0,1,1,1,0,1,1,0,1,1,1,0,0,0,0,0,0,0,0,0,0],"id":17,"left_children":[1,3,5,7,-1,9,11,13,-1,-1,-1,15,17,-1,-1,19,21,23,-1,25,27,-1,29,31,33,-1,-1,-1,-1,-1,-1,-1,-1,-1,-1],"loss_changes":[6.77997E-1,2.459727E-1,5.7887906E-1,1.1897188E0,0E0,7.593392E-1,7.532938E-1,4.2441332E-1,0E0,0E0,0E0,1.2678398E0,7.776711E-1,0E0,0E0,1.462716E0,1.8487302E0,1.5341821E0,0E0,2.1047895E0,2.127762E0,0E0,1.4108914E0,1.798782E0,9.490187E-1,0E0,0E0,0E0,0E0,0E0,0E0,0E0,0E0,0E0,0E0],"parents":[2147483647,0,0,1,1,2,2,3,3,5,5,6,6,7,7,11,11,12,12,15,15,16,16,17,17,19,19,20,20,22,22,23,23,24,24],"right_children":[2,4,6,8,-1,10,12,14,-1,-1,-1,16,18,-1,-1,20,22,24,-1,26,28,-1,30,32,34,-1,-1,-1,-1,-1,-1,-1,-1,-1,-1],"split_conditions":[9.873687E-1,5.3395E3,6.05E1,4.273E3,1.7535323E-1,2.3805E3,5E-1,2.489E3,-1.5866552E-1,3.8831107E-2,-2.1994689E-1,3.6085E3,1.79165E4,-4.2185863E-3,1.9609614E-1,5E-1,4.2105E3,6.4115E3,1.28952E-1,1.7549333E3,1.285E2,-2.1395384E-1,5.724018E2,5.957E3,2.675E2,2.7535662E-1,-6.163476E-2,-2.2918369E-1,1.7570272E-1,-3.1355802E-2,1.9409794E-1,-4.5471586E-2,1.7505455E-1,-2.4388264E-1,1.677573E-2],"split_indices":[9,5,7,5,0,5,1,5,0,0,0,5,5,0,0,0,5,5,0,6,7,0,6,5,7,0,0,0,0,0,0,0,0,0,0],"split_type":[0,0,0,0,0,0,0,0,0,0,0,0,0,0,0,0,0,0,0,0,0,0,0,0,0,0,0,0,0,0,0,0,0,0,0],"sum_hessian":[6.05365E1,5.260669E0,5.527583E1,4.077084E0,1.1835852E0,2.849975E0,5.2425854E1,3.0620606E0,1.0150231E0,1.257629E0,1.5923462E0,2.2315905E1,3.0109951E1,1.4251417E0,1.636919E0,9.403937E0,1.2911967E1,2.8637476E1,1.4724746E0,6.6379614E0,2.7659762E0,2.509164E0,1.0402803E1,2.3279018E1,5.3584566E0,4.72972E0,1.908241E0,1.5843016E0,1.1816747E0,7.882929E0,2.519874E0,2.0330885E1,2.9481342E0,3.8238046E0,1.5346518E0],"tree_param":{"num_deleted":"0","num_feature":"11","num_nodes":"35","size_leaf_vector":"0"}},{"base_weights":[-4.24436E-3,4.778094E-2,-1.8991211E-1,8.1245095E-2,-5.1612014E-1,4.3270022E-1,-3.165986E-1,7.3062545E-3,4.4713485E-1,2.776747E-1,-4.0170822E-1,1.020074E-1,-1.601629E-1,1.5178663E-1,9.8621064E-1,-5.449959E-1,-1.17941156E-1,4.7614828E-1,-8.114094E-2,-4.118462E-1,2.560782E-1,4.1041607E-1,-9.3259804E-2,-1.5122409E-1,-7.5965065E-1,5.9942156E-1,-5.4694647E-1,7.853935E-2,9.2775166E-1,-7.899225E-1,1.7045373E-2,2.2069587E-1,-5.449525E-1,-2.9510662E-1,9.3698937E-1,-2.7235308E-1,1.3913412E-1,4.00634E-1,-7.415549E-1],"categories":[],"categories_nodes":[],"categories_segments":[],"categories_sizes":[],"default_left":[1,1,1,1,0,0,1,1,1,0,1,1,1,1,0,1,1,1,1,1,1,0,1,1,0,0,0,0,0,0,0,0,0,0,0,0,0,0,0],"id":18,"left_children":[1,3,5,7,-1,-1,9,11,13,-1,15,17,19,21,-1,23,25,27,29,31,33,-1,35,37,-1,-1,-1,-1,-1,-1,-1,-1,-1,-1,-1,-1,-1,-1,-1],"loss_changes":[5.7923406E-1,9.2706776E-1,1.1718891E0,1.2179856E0,0E0,0E0,6.921644E-1,6.280399E-1,1.0559094E0,0E0,3.6063182E-1,1.7687573E0,1.605783E0,4.2321414E-1,0E0,4.487127E-1,1.7996733E0,1.4432374E0,1.2525833E0,9.0398085E-1,2.5332727E0,0E0,2.0161393E-1,1.4702041E0,0E0,0E0,0E0,0E0,0E0,0E0,0E0,0E0,0E0,0E0,0E0,0E0,0E0,0E0,0E0],"parents":[2147483647,0,0,1,1,2,2,3,3,6,6,7,7,8,8,10,10,11,11,12,12,13,13,15,15,16,16,17,17,18,18,19,19,20,20,22,22,23,23],"right_children":[2,4,6,8,-1,-1,10,12,14,-1,16,18,20,22,-1,24,26,28,30,32,34,-1,36,38,-1,-1,-1,-1,-1,-1,-1,-1,-1,-1,-1,-1,-1,-1,-1],"split_conditions":[1.5E0,5.475679E3,2.952E3,2.536E3,-1.5483604E-1,1.2981007E-1,9.75E1,2.3989662E2,5E-1,8.3302416E-2,6.03E3,3.5955E3,4.3165E3,2.992027E3,2.958632E-1,5E-1,6.4145E3,9.397565E1,2.4105548E2,3.5658585E2,2.0705E3,1.2312482E-1,1.6136745E2,5.2E2,-2.278952E-1,1.7982647E-1,-1.6408394E-1,2.3561805E-2,2.783255E-1,-2.3697676E-1,5.113612E-3,6.6208765E-2,-1.6348577E-1,-8.8531986E-2,2.8109682E-1,-8.170593E-2,4.174024E-2,1.201902E-1,-2.2246648E-1],"split_indices":[2,6,5,6,0,0,7,6,2,0,5,5,5,6,0,10,5,7,8,8,6,0,7,6,0,0,0,0,0,0,0,0,0,0,0,0,0,0,0],"split_type":[0,0,0,0,0,0,0,0,0,0,0,0,0,0,0,0,0,0,0,0,0,0,0,0,0,0,0,0,0,0,0,0,0,0,0,0,0,0,0],"sum_hessian":[5.8026302E1,4.590584E1,1.2120459E1,4.414219E1,1.7636521E0,1.6408471E0,1.0479612E1,3.7570023E1,6.572166E0,1.029391E0,9.450221E0,2.4248672E1,1.332135E1,5.0738688E0,1.498297E0,5.6677337E0,3.7824872E0,7.44336E0,1.6805313E1,8.308258E0,5.013092E0,2.1401935E0,2.9336753E0,2.600946E0,3.0667877E0,1.2668625E0,2.5156248E0,4.582587E0,2.8607728E0,1.1875511E0,1.5617763E1,1.3299738E0,6.978285E0,3.0835867E0,1.9295053E0,1.5597305E0,1.3739446E0,1.510359E0,1.090587E0],"tree_param":{"num_deleted":"0","num_feature":"11","num_nodes":"39","size_leaf_vector":"0"}},{"base_weights":[7.688078E-4,3.1024024E-1,-3.4681823E-2,1.3975632E-1,5.6468034E-1,-3.624166E-1,-1.0295985E-2,3.6741942E-1,-3.415468E-1,1.1958453E-1,-6.6690063E-1,4.2228895E-1,-3.6470566E-2,-1.859386E-1,6.588102E-1,-2.3096812E-1,3.1046495E-2,-5.1396275E-1,2.210916E-1,5.780257E-1,-6.869425E-2,-1.0502465E-1,-8.08725E-1,6.620841E-1,-3.3336198E-1,7.0755386E-1,1.24631144E-1,-2.4150723E-1,4.24827E-1],"categories":[],"categories_nodes":[],"categories_segments":[],"categories_sizes":[],"default_left":[1,1,1,1,0,1,1,1,0,0,0,0,1,0,0,1,1,1,1,1,1,0,0,0,0,0,0,0,0],"id":19,"left_children":[1,3,5,7,-1,9,11,13,-1,-1,-1,-1,15,-1,-1,17,19,21,23,25,27,-1,-1,-1,-1,-1,-1,-1,-1],"loss_changes":[6.384434E-1,1.8051916E-1,4.137141E-1,6.635223E-1,0E0,6.063422E-1,5.7751E-1,7.3766893E-1,0E0,0E0,0E0,0E0,6.3398707E-1,0E0,0E0,1.7023201E0,2.020856E0,8.7191844E-1,1.5606928E0,2.469598E-1,2.7982786E0,0E0,0E0,0E0,0E0,0E0,0E0,0E0,0E0],"parents":[2147483647,0,0,1,1,2,2,3,3,5,5,6,6,7,7,12,12,15,15,16,16,17,17,18,18,19,19,20,20],"right_children":[2,4,6,8,-1,10,12,14,-1,-1,-1,-1,16,-1,-1,18,20,22,24,26,28,-1,-1,-1,-1,-1,-1,-1,-1],"split_conditions":[9.873687E-1,1.6640735E2,6.05E1,1.585101E2,1.694041E-1,2.3805E3,1.9035E3,2.4905E3,-1.0246404E-1,3.587536E-2,-2.000702E-1,1.2668669E-1,3.3575E3,-5.578158E-2,1.9764307E-1,1.3721016E2,1.065E2,2.42E2,2.009E3,1.5E0,2.085E3,-3.1507395E-2,-2.426175E-1,1.9862524E-1,-1.000086E-1,2.1226616E-1,3.7389345E-2,-7.245217E-2,1.2744811E-1],"split_indices":[9,7,7,7,0,5,5,5,0,0,0,0,5,0,0,7,7,6,6,10,6,0,0,0,0,0,0,0,0],"split_type":[0,0,0,0,0,0,0,0,0,0,0,0,0,0,0,0,0,0,0,0,0,0,0,0,0,0,0,0,0],"sum_hessian":[5.6213207E1,4.9808474E0,5.123236E1,3.9101665E0,1.0706807E0,2.5880716E0,4.864429E1,2.815168E0,1.0949985E0,1.2370557E0,1.3510158E0,1.9119592E0,4.673233E1,1.0959071E0,1.7192609E0,1.14183655E1,3.5313965E1,6.938099E0,4.480266E0,4.706761E0,3.0607204E1,3.474315E0,3.4637842E0,2.3873408E0,2.0929253E0,3.224888E0,1.4818732E0,2.3047472E1,7.5597324E0],"tree_param":{"num_deleted":"0","num_feature":"11","num_nodes":"29","size_leaf_vector":"0"}},{"base_weights":[4.967585E-3,-2.5114524E-1,3.675882E-2,1.5374267E-1,-5.4934204E-1,6.3048023E-1,-6.5783467E-3,-1.5957776E-1,4.4510564E-1,-6.8067265E-1,-1.0575019E-1,7.3455507E-1,1.8983817E-1,-7.8143954E-2,2.0010164E-1,2.3802318E-2,-4.0353847E-1,3.7135556E-1,-6.6630757E-1,-9.5441535E-2,6.668787E-1,-6.6055936E-1,2.785226E-1,8.149287E-1,1.2937191E-1,-8.679979E-3,-4.863715E-1,8.855692E-1,1.04225166E-1,-2.3067917E-1,-8.2136625E-1,6.6213316E-1,-2.3149692E-1,-3.2314786E-1,4.6803546E-1],"categories":[],"categories_nodes":[],"categories_segments":[],"categories_sizes":[],"default_left":[1,1,1,1,1,1,1,0,0,0,0,0,0,1,1,1,1,1,0,1,1,1,1,0,1,0,0,0,0,0,0,0,0,0,0],"id":20,"left_children":[1,3,5,7,9,11,13,-1,-1,-1,-1,-1,-1,15,17,19,21,23,-1,25,27,29,31,-1,33,-1,-1,-1,-1,-1,-1,-1,-1,-1,-1],"loss_changes":[4.6035936E-1,8.3855534E-1,1.2947915E0,3.8418567E-1,1.5029764E-1,1.7513275E-2,7.2173876E-1,0E0,0E0,0E0,0E0,0E0,0E0,1.209757E0,2.1109228E0,2.2485223E0,1.7067602E0,1.0890856E0,0E0,8.40678E-1,4.7150683E-1,2.671616E-1,7.5604725E-1,0E0,1.4369057E0,0E0,0E0,0E0,0E0,0E0,0E0,0E0,0E0,0E0,0E0],"parents":[2147483647,0,0,1,1,2,2,3,3,4,4,5,5,6,6,13,13,14,14,15,15,16,16,17,17,19,19,20,20,21,21,22,22,24,24],"right_children":[2,4,6,8,10,12,14,-1,-1,-1,-1,-1,-1,16,18,20,22,24,-1,26,28,30,32,-1,34,-1,-1,-1,-1,-1,-1,-1,-1,-1,-1],"split_conditions":[2.4105548E2,3.5945E3,3.5817E2,2.7805E3,1.4520609E2,5.1615E3,6.072E3,-4.787333E-2,1.335317E-1,-2.042018E-1,-3.1725056E-2,2.2036652E-1,5.6951452E-2,4.7425E3,5E-1,4.56E3,2.0706182E3,7.4555E3,-1.9989228E-1,4.075E3,1.345E2,5.258E3,2.8331477E3,2.4447863E-1,1.1198E4,-2.6039938E-3,-1.4591146E-1,2.6567078E-1,3.126755E-2,-6.920376E-2,-2.4640988E-1,1.9863996E-1,-6.9449075E-2,-9.694436E-2,1.4041065E-1],"split_indices":[8,5,8,5,7,5,5,0,0,0,0,0,0,5,4,5,6,5,0,5,7,5,6,0,5,0,0,0,0,0,0,0,0,0,0],"split_type":[0,0,0,0,0,0,0,0,0,0,0,0,0,0,0,0,0,0,0,0,0,0,0,0,0,0,0,0,0,0,0,0,0,0,0],"sum_hessian":[5.4406483E1,5.2458286E0,4.9160656E1,2.430352E0,2.8154767E0,2.4226038E0,4.6738052E1,1.388991E0,1.041361E0,1.7599617E0,1.0555149E0,1.4201654E0,1.0024384E0,3.5178837E1,1.1559216E1,2.7492327E1,7.6865087E0,1.012859E1,1.4306254E0,2.3910294E1,3.582033E0,5.6056557E0,2.080853E0,2.739391E0,7.3891993E0,2.0404089E1,3.506205E0,2.1661747E0,1.4158583E0,2.1888309E0,3.416825E0,1.0173808E0,1.0634722E0,3.1825342E0,4.206665E0],"tree_param":{"num_deleted":"0","num_feature":"11","num_nodes":"35","size_leaf_vector":"0"}},{"base_weights":[6.0962127E-3,2.9111257E-1,-2.6106821E-2,1.9611677E-2,3.8187894E-1,8.276445E-3,-2.7811146E-1,6.080949E-1,3.4298927E-2,-3.186081E-2,3.825208E-1,-4.465895E-1,2.4244288E-1,-4.0915027E-1,5.770643E-3,7.261585E-3,6.493225E-1,7.573616E-2,-6.0896575E-1,3.5779096E-2,-6.5847194E-1,3.9166912E-1,-6.5067805E-2,-1.7415887E-1,-7.3759717E-1,5.045029E-1,-5.703492E-2,-1.21232994E-1,4.5574427E-1],"categories":[],"categories_nodes":[],"categories_segments":[],"categories_sizes":[],"default_left":[1,1,1,0,1,1,1,0,0,1,1,1,0,1,1,0,0,0,1,0,0,1,1,0,0,0,0,0,0],"id":21,"left_children":[1,3,5,-1,7,9,11,-1,-1,13,15,17,-1,19,21,-1,-1,-1,23,-1,-1,25,27,-1,-1,-1,-1,-1,-1],"loss_changes":[5.018308E-1,1.2924784E-1,4.2946085E-1,0E0,3.0185813E-1,6.78389E-1,6.298888E-1,0E0,0E0,5.841673E-1,4.3308336E-1,4.5705706E-1,0E0,4.3737972E-1,1.0710424E0,0E0,0E0,0E0,8.445287E-2,0E0,0E0,3.3632332E-1,1.0256168E0,0E0,0E0,0E0,0E0,0E0,0E0],"parents":[2147483647,0,0,1,1,2,2,4,4,5,5,6,6,9,9,10,10,11,11,13,13,14,14,18,18,21,21,22,22],"right_children":[2,4,6,-1,8,10,12,-1,-1,14,16,18,-1,20,22,-1,-1,-1,24,-1,-1,26,28,-1,-1,-1,-1,-1,-1],"split_conditions":[9.873687E-1,2.489E3,3.1376477E3,5.8835032E-3,1.5987914E2,2.536E3,6.6755E3,1.8242846E-1,1.0289678E-2,2.278E3,1.475E2,1.4E2,7.2732866E-2,1.8935E3,2.777E3,2.1784755E-3,1.9479676E-1,2.2720847E-2,4.576675E3,1.0733729E-2,-1.975416E-1,1.9352312E3,2.085E3,-5.2247662E-2,-2.2127916E-1,1.5135087E-1,-1.7110476E-2,-3.63699E-2,1.3672328E-1],"split_indices":[9,5,6,0,7,6,6,0,0,5,7,7,0,5,5,0,0,0,6,0,0,6,6,0,0,0,0,0,0],"split_type":[0,0,0,0,0,0,0,0,0,0,0,0,0,0,0,0,0,0,0,0,0,0,0,0,0,0,0,0,0],"sum_hessian":[5.2847218E1,4.5486856E0,4.829853E1,1.444364E0,3.1043215E0,4.335093E1,4.947601E0,1.4264395E0,1.6778821E0,3.9978184E1,3.3727458E0,3.8451893E0,1.1024114E0,2.730444E0,3.724774E1,1.8283588E0,1.5443871E0,1.0384189E0,2.8067703E0,1.2881528E0,1.4422911E0,5.0745654E0,3.2173176E1,1.1781756E0,1.6285948E0,3.9555292E0,1.1190361E0,2.9733852E1,2.4393222E0],"tree_param":{"num_deleted":"0","num_feature":"11","num_nodes":"29","size_leaf_vector":"0"}},{"base_weights":[9.209633E-3,-1.3496454E-1,6.568508E-2,3.5932858E-2,-5.7730585E-1,5.533489E-1,1.6842319E-2,1.4701672E-1,-3.0412132E-1,-1.7798138E-1,-7.7070916E-1,-3.4965888E-1,7.090278E-2,-1.6493559E-1,4.6464399E-1,-9.658782E-2,-3.720625E-1,-5.2536726E-1,1.5230574E-1,2.624091E-1,-5.4464947E-2,1.9018236E-1,-6.0198957E-1,6.6248345E-1,-9.063886E-2,4.3562013E-1,-2.9463178E-1,-4.5635128E-1,5.671274E-2,-2.5319532E-1,4.7473153E-1,7.941892E-1,2.2666658E-1,6.369403E-1,-4.4187633E-3,-5.429253E-1,1.573078E-1,-5.988424E-1,1.1641453E-2,3.3710328E-1,-7.2993346E-2],"categories":[],"categories_nodes":[],"categories_segments":[],"categories_sizes":[],"default_left":[1,1,1,1,1,0,1,1,1,0,0,1,1,1,1,0,0,0,0,1,1,1,0,1,0,1,1,1,1,0,0,0,0,0,0,0,0,0,0,0,0],"id":22,"left_children":[1,3,5,7,9,-1,11,13,15,-1,-1,17,19,21,23,-1,-1,-1,-1,25,27,29,-1,31,-1,33,35,37,39,-1,-1,-1,-1,-1,-1,-1,-1,-1,-1,-1,-1],"loss_changes":[4.3926793E-1,1.1702054E0,9.1138756E-1,4.9458483E-1,1.9461668E-1,0E0,7.4137473E-1,1.0329118E0,1.0006219E-2,0E0,0E0,5.0492674E-1,7.909569E-1,9.8473734E-1,6.141683E-1,0E0,0E0,0E0,0E0,1.3798165E0,9.3642056E-1,6.063596E-1,0E0,4.0361285E-2,0E0,9.150536E-1,4.975738E-1,3.0881906E-1,6.3749623E-1,0E0,0E0,0E0,0E0,0E0,0E0,0E0,0E0,0E0,0E0,0E0,0E0],"parents":[2147483647,0,0,1,1,2,2,3,3,4,4,6,6,7,7,8,8,11,11,12,12,13,13,14,14,19,19,20,20,21,21,23,23,25,25,26,26,27,27,28,28],"right_children":[2,4,6,8,10,-1,12,14,16,-1,-1,18,20,22,24,-1,-1,-1,-1,26,28,30,-1,32,-1,34,36,38,40,-1,-1,-1,-1,-1,-1,-1,-1,-1,-1,-1,-1],"split_conditions":[1.11262E2,1.2935E3,1.145E2,9.7E1,5E-1,1.6600467E-1,1.2618886E2,7.536981E1,1.0575351E2,-5.3394414E-2,-2.3121275E-1,2.136E3,1.515E2,6.55E1,5E-1,-2.8976347E-2,-1.1161876E-1,-1.5761018E-1,4.569172E-2,2.2059058E3,1.6236745E2,5E-1,-1.8059687E-1,5E-1,-2.719166E-2,5.087E3,5E-1,5.766E3,1.8365166E2,-7.5958595E-2,1.4241947E-1,2.3825677E-1,6.799998E-2,1.910821E-1,-1.3256291E-3,-1.6287759E-1,4.7192343E-2,-1.7965272E-1,3.4924361E-3,1.01130985E-1,-2.1898005E-2],"split_indices":[7,6,7,7,10,0,7,7,7,0,0,6,7,7,0,0,0,0,0,6,7,10,0,10,0,5,2,5,7,0,0,0,0,0,0,0,0,0,0,0,0],"split_type":[0,0,0,0,0,0,0,0,0,0,0,0,0,0,0,0,0,0,0,0,0,0,0,0,0,0,0,0,0,0,0,0,0,0,0,0,0,0,0,0,0],"sum_hessian":[5.186009E1,1.4205522E1,3.7654564E1,1.09094515E1,3.296071E0,2.4876618E0,3.5166904E1,8.651104E0,2.2583475E0,1.7020557E0,1.5940152E0,3.8176105E0,3.1349293E1,4.6070714E0,4.044032E0,1.1542395E0,1.1041079E0,2.793239E0,1.0243714E0,1.1970524E1,1.9378769E1,2.853434E0,1.7536373E0,2.8393543E0,1.2046778E0,9.297464E0,2.6730587E0,3.5264862E0,1.58522835E1,1.1584903E0,1.6949438E0,1.5489535E0,1.2904009E0,6.0720196E0,3.2254453E0,1.5952905E0,1.0777681E0,2.4890425E0,1.0374436E0,4.5080605E0,1.1344223E1],"tree_param":{"num_deleted":"0","num_feature":"11","num_nodes":"41","size_leaf_vector":"0"}},{"base_weights":[1.161359E-3,2.9369032E-1,-3.206916E-2,3.7761143E-1,-9.500413E-3,1.4384952E-2,-1.9676058E-1,6.3961394E-2,5.196787E-1,-1.2794933E-1,1.2486398E-1,-2.9494919E-2,-5.88746E-1,9.237471E-2,-3.2197753E-1,5.2032125E-1,2.6719412E-2,2.446679E-1,-3.7749007E-1,3.1217754E-1,-5.966475E-1,-1.9030805E-1,-6.394093E-1,8.4442914E-1,-2.4299283E-1,1.4799707E-1,-7.261492E-1,-1.7075248E-2,5.2168244E-1,-7.246937E-1,2.0811945E-1,-1.4308929E-2,7.080826E-1,-3.4692183E-1,2.801523E-1,3.0497122E-3,3.8402867E-1,2.9784587E-1,-2.525108E-1],"categories":[],"categories_nodes":[],"categories_segments":[],"categories_sizes":[],"default_left":[1,1,1,1,0,1,1,0,0,1,1,1,0,1,1,1,1,1,1,1,0,1,0,0,0,1,0,1,0,0,0,0,0,0,0,0,0,0,0],"id":23,"left_children":[1,3,5,7,-1,9,11,-1,-1,13,15,17,-1,19,21,23,25,27,29,31,-1,33,-1,-1,-1,35,-1,37,-1,-1,-1,-1,-1,-1,-1,-1,-1,-1,-1],"loss_changes":[5.1365554E-1,1.4072672E-1,3.660935E-1,1.5595615E-1,0E0,6.1300737E-1,6.720301E-1,0E0,0E0,7.601305E-1,8.353673E-1,8.9593005E-1,0E0,1.5156269E0,2.673455E-1,1.2681705E0,1.8043901E0,3.9448097E-1,9.854267E-1,9.551668E-1,0E0,6.868316E-1,0E0,0E0,0E0,5.748665E-1,0E0,3.4973004E-1,0E0,0E0,0E0,0E0,0E0,0E0,0E0,0E0,0E0,0E0,0E0],"parents":[2147483647,0,0,1,1,2,2,3,3,5,5,6,6,9,9,10,10,11,11,13,13,14,14,15,15,16,16,17,17,18,18,19,19,21,21,25,25,27,27],"right_children":[2,4,6,8,-1,10,12,-1,-1,14,16,18,-1,20,22,24,26,28,30,32,-1,34,-1,-1,-1,36,-1,38,-1,-1,-1,-1,-1,-1,-1,-1,-1,-1,-1],"split_conditions":[9.873687E-1,1.5E0,1.5E0,2.489E3,-2.8501241E-3,3.866E3,6.4115E3,1.9188419E-2,1.5590362E-1,2.525E2,1.13621574E2,9.419165E2,-1.766238E-1,3.59E3,2.9828289E3,4.7365E3,5E-1,1.37E2,1.6824301E2,9.397565E1,-1.7899425E-1,2.557E3,-1.918228E-1,2.5332874E-1,-7.289785E-2,1.95E2,-2.1784477E-1,5E-1,1.5650474E-1,-2.1740812E-1,6.243584E-2,-4.292679E-3,2.124248E-1,-1.0407656E-1,8.404569E-2,9.1491366E-4,1.152086E-1,8.935376E-2,-7.575324E-2],"split_indices":[9,2,2,5,0,5,5,0,0,6,7,6,0,5,6,5,0,7,7,7,0,6,0,0,0,7,0,10,0,0,0,0,0,0,0,0,0,0,0],"split_type":[0,0,0,0,0,0,0,0,0,0,0,0,0,0,0,0,0,0,0,0,0,0,0,0,0,0,0,0,0,0,0,0,0,0,0,0,0,0,0],"sum_hessian":[5.087151E1,4.3898244E0,4.6481686E1,3.2459183E0,1.1439061E0,3.6967113E1,9.51457E0,1.463994E0,1.7819242E0,1.6085468E1,2.0881645E1,7.422522E0,2.0920486E0,7.7776527E0,8.307816E0,3.2966723E0,1.7584974E1,4.3177605E0,3.1047616E0,6.311248E0,1.4664047E0,7.002662E0,1.3051534E0,2.2394998E0,1.0571727E0,1.5837219E1,1.7477542E0,2.702554E0,1.6152062E0,1.8000323E0,1.3047293E0,3.9871056E0,2.3241425E0,5.4507327E0,1.5519296E0,1.0439331E1,5.3978877E0,1.0427183E0,1.6598357E0],"tree_param":{"num_deleted":"0","num_feature":"11","num_nodes":"39","size_leaf_vector":"0"}},{"base_weights":[-2.506507E-3,-2.0826202E-2,4.458703E-1,1.1401814E-2,-6.541168E-1,6.783111E-2,-2.0263499E-1,4.309465E-1,2.7349224E-2,-3.4217906E-1,2.0064549E-1,9.131869E-2,5.1979923E-1,8.434239E-2,-2.170754E-1,-6.3913625E-1,-6.744414E-2,4.0159896E-1,-9.623667E-2,1.6870514E-1,-1.8512198E-1,2.3247269E-1,-3.5904676E-1,2.5115088E-1,-4.1053885E-1],"categories":[],"categories_nodes":[],"categories_segments":[],"categories_sizes":[],"default_left":[1,1,0,1,0,1,1,1,1,1,1,0,0,1,1,0,1,0,0,0,0,0,0,0,0],"id":24,"left_children":[1,3,-1,5,-1,7,9,11,13,15,17,-1,-1,19,21,-1,23,-1,-1,-1,-1,-1,-1,-1,-1],"loss_changes":[4.2099813E-1,1.0097854E0,0E0,5.900443E-1,0E0,5.5428195E-1,6.42999E-1,6.7047834E-2,5.1582783E-1,6.0564697E-1,2.327809E-1,0E0,0E0,7.059729E-1,5.3232294E-1,0E0,6.7680943E-1,0E0,0E0,0E0,0E0,0E0,0E0,0E0,0E0],"parents":[2147483647,0,0,1,1,3,3,5,5,6,6,7,7,8,8,9,9,10,10,13,13,14,14,16,16],"right_children":[2,4,-1,6,-1,8,10,12,14,16,18,-1,-1,20,22,-1,24,-1,-1,-1,-1,-1,-1,-1,-1],"split_conditions":[8.6565E3,5.475679E3,1.337611E-1,1.5E0,-1.9623505E-1,9.873687E-1,5E-1,1.191116E2,5E-1,4.491E3,3.5615E3,2.7395608E-2,1.5593977E-1,1.5E0,6.4E1,-1.9174089E-1,6.4115E3,1.20479695E-1,-2.8871002E-2,5.0611544E-2,-5.5536598E-2,6.974181E-2,-1.07714035E-1,7.534526E-2,-1.2316166E-1],"split_indices":[6,6,0,2,0,9,3,7,0,5,5,0,0,10,7,0,5,0,0,0,0,0,0,0,0],"split_type":[0,0,0,0,0,0,0,0,0,0,0,0,0,0,0,0,0,0,0,0,0,0,0,0,0],"sum_hessian":[4.9122467E1,4.8110336E1,1.012131E0,4.6715015E1,1.3953208E0,3.7509094E1,9.205921E0,2.7948012E0,3.4714294E1,6.9519143E0,2.2540069E0,1.0000387E0,1.7947625E0,2.8681486E1,6.0328064E0,2.7034347E0,4.2484794E0,1.1338233E0,1.1201836E0,2.212775E1,6.553736E0,1.2949437E0,4.737863E0,2.341845E0,1.9066346E0],"tree_param":{"num_deleted":"0","num_feature":"11","num_nodes":"25","size_leaf_vector":"0"}},{"base_weights":[-4.030826E-3,-3.2021248E-1,1.8345468E-2,9.638437E-2,-5.7800734E-1,3.6781296E-1,-1.0504458E-2,1.14010684E-1,4.76266E-1,-1.8431446E-1,4.734097E-2,7.847923E-2,-5.854293E-1,1.9892468E-1,-1.3378766E-1,-2.4582984E-1,4.178214E-1,-8.1711096E-1,-5.3226162E-5,4.915748E-1,1.06004395E-1,-3.6936808E-1,1.1765177E-1,3.179588E-2,-5.582087E-1,6.675851E-1,-1.2873903E-1,5.9464406E-2,7.590379E-1,-5.2141464E-1,2.2626172E-1,-5.921029E-1,-8.0890626E-2,2.3869547E-1,-2.2947036E-1],"categories":[],"categories_nodes":[],"categories_segments":[],"categories_sizes":[],"default_left":[1,1,1,0,0,1,1,0,0,1,1,1,1,1,1,1,1,0,0,1,1,1,1,0,0,0,0,0,0,0,0,0,0,0,0],"id":25,"left_children":[1,3,5,-1,-1,7,9,-1,-1,11,13,15,17,19,21,23,25,-1,-1,27,29,31,33,-1,-1,-1,-1,-1,-1,-1,-1,-1,-1,-1,-1],"loss_changes":[3.5464093E-1,4.1143948E-1,4.7755662E-1,0E0,0E0,4.5086265E-2,4.5485532E-1,0E0,0E0,1.2354444E0,9.625493E-1,9.500616E-1,6.2176704E-1,4.634682E-1,9.988188E-1,4.1378087E-1,6.501425E-1,0E0,0E0,4.5116997E-1,1.299969E0,5.0266135E-1,4.1444287E-1,0E0,0E0,0E0,0E0,0E0,0E0,0E0,0E0,0E0,0E0,0E0,0E0],"parents":[2147483647,0,0,1,1,2,2,5,5,6,6,9,9,10,10,11,11,12,12,13,13,14,14,15,15,16,16,19,19,20,20,21,21,22,22],"right_children":[2,4,6,-1,-1,8,10,-1,-1,12,14,16,18,20,22,24,26,-1,-1,28,30,32,34,-1,-1,-1,-1,-1,-1,-1,-1,-1,-1,-1,-1],"split_conditions":[6.05E1,2.3805E3,2.114E3,2.8915312E-2,-1.734022E-1,2.8065E3,3.3575E3,3.4203205E-2,1.428798E-1,2.0015E3,1.515E2,1.10256516E2,1.5729468E2,3.6005E3,1.95E2,5E-1,2.81E3,-2.451333E-1,-1.596785E-5,5E-1,3.866E3,5.8435E3,3.65E2,9.538765E-3,-1.6746262E-1,2.0027553E-1,-3.862171E-2,1.7839322E-2,2.2771138E-1,-1.564244E-1,6.787852E-2,-1.7763087E-1,-2.426719E-2,7.160865E-2,-6.884111E-2],"split_indices":[7,5,5,0,0,6,5,0,0,6,7,7,7,5,7,1,5,0,0,10,5,5,7,0,0,0,0,0,0,0,0,0,0,0,0],"split_type":[0,0,0,0,0,0,0,0,0,0,0,0,0,0,0,0,0,0,0,0,0,0,0,0,0,0,0,0,0,0,0,0,0,0,0],"sum_hessian":[4.82958E1,2.3122919E0,4.598351E1,1.1232455E0,1.1890464E0,2.6106591E0,4.337285E1,1.3956943E0,1.2149649E0,1.0284464E1,3.3088383E1,6.699548E0,3.5849166E0,1.7959833E1,1.5128552E1,3.566559E0,3.1329885E0,2.2847707E0,1.300146E0,3.294283E0,1.4665549E1,7.568451E0,7.560101E0,2.363881E0,1.202678E0,1.9983609E0,1.1346277E0,1.7268045E0,1.5674785E0,1.822289E0,1.2843261E1,3.67695E0,3.8915012E0,5.8370447E0,1.7230561E0],"tree_param":{"num_deleted":"0","num_feature":"11","num_nodes":"35","size_leaf_vector":"0"}},{"base_weights":[-9.288907E-3,2.542749E-1,-3.856439E-2,8.8794954E-2,3.969679E-1,-3.1601736E-1,-1.733249E-2,4.0267602E-1,-2.5230047E-1,6.641709E-2,-5.579596E-1,8.1239484E-2,-9.1256455E-2,-7.04019E-4,2.7811787E-1,-1.3746451E-1,4.2291293E-1,1.3215792E-1,-5.64085E-1,6.678643E-1,-1.00394554E-1,-5.082458E-2,-4.425752E-1,2.6876295E-1,-2.55738E-1,-3.9273435E-1,1.6507861E-1,8.5348755E-2,-4.3294567E-1,-6.283275E-1,5.961972E-2],"categories":[],"categories_nodes":[],"categories_segments":[],"categories_sizes":[],"default_left":[1,1,1,1,0,1,1,0,0,0,0,1,1,1,1,1,0,1,0,0,1,1,1,0,0,0,0,0,0,0,0],"id":26,"left_children":[1,3,5,7,-1,9,11,-1,-1,-1,-1,13,15,17,19,21,-1,23,-1,-1,25,27,29,-1,-1,-1,-1,-1,-1,-1,-1],"loss_changes":[3.8294435E-1,8.201796E-2,2.5603575E-1,4.8570028E-1,0E0,3.236732E-1,3.156134E-1,0E0,0E0,0E0,0E0,3.0115438E-1,6.435632E-1,1.1351912E0,8.76228E-1,5.9511137E-1,0E0,7.192241E-1,0E0,0E0,3.4825456E-1,1.0425758E0,5.073618E-1,0E0,0E0,0E0,0E0,0E0,0E0,0E0,0E0],"parents":[2147483647,0,0,1,1,2,2,3,3,5,5,6,6,11,11,12,12,13,13,14,14,15,15,17,17,20,20,21,21,22,22],"right_children":[2,4,6,8,-1,10,12,-1,-1,-1,-1,14,16,18,20,22,-1,24,-1,-1,26,28,30,-1,-1,-1,-1,-1,-1,-1,-1],"split_conditions":[9.873687E-1,2.4726125E3,6.05E1,1.4089575E3,1.1909037E-1,2.3805E3,5E-1,1.2080281E-1,-7.569014E-2,1.9925129E-2,-1.6738789E-1,6.025E3,1.79165E4,4.7365E3,1.4820609E2,6.4115E3,1.2687388E-1,1.5993721E3,-1.6922551E-1,2.003593E-1,9.612E3,1.5E0,2.675E2,8.062889E-2,-7.67214E-2,-1.1782031E-1,4.9523585E-2,2.5604628E-2,-1.298837E-1,-1.8849826E-1,1.7885918E-2],"split_indices":[9,6,7,6,0,5,1,0,0,0,0,5,5,5,7,5,0,6,0,0,5,10,7,0,0,0,0,0,0,0,0],"split_type":[0,0,0,0,0,0,0,0,0,0,0,0,0,0,0,0,0,0,0,0,0,0,0,0,0,0,0,0,0,0,0],"sum_hessian":[4.7359306E1,3.9662273E0,4.3393078E1,2.5876403E0,1.3785871E0,2.097636E0,4.1295444E1,1.2535589E0,1.3340813E0,1.0939422E0,1.0036938E0,1.7654951E1,2.3640491E1,1.3169887E1,4.4850645E0,2.236336E1,1.2771327E0,1.1276074E1,1.8938127E0,1.833107E0,2.6519575E0,1.8326033E1,4.0373254E0,8.566383E0,2.7096908E0,1.033971E0,1.6179866E0,1.4083764E1,4.2422695E0,2.7638628E0,1.2734628E0],"tree_param":{"num_deleted":"0","num_feature":"11","num_nodes":"31","size_leaf_vector":"0"}},{"base_weights":[-1.1251718E-2,-1.0875853E-1,5.3050853E-2,2.297922E-2,-2.9897916E-1,8.965458E-2,-3.109977E-1,3.3473656E-1,-8.314519E-2,-4.3966612E-1,-1.0349259E-2,2.5168866E-1,2.87023E-2,-6.9255074E-3,5.386326E-1,-2.5513276E-1,2.4855429E-1,-1.3009247E-3,-6.003161E-1,4.3332443E-1,-4.7281814E-1,5.0417596E-1,-1.392512E-1,-1.3124022E-1,2.1746188E-1,-2.1485418E-2,-5.8873814E-1,5.0426775E-1,-4.4495422E-2,-7.073127E-1,-1.995433E-1,6.971402E-1,9.866584E-2,-3.770055E-1,1.7975849E-1,-3.5807824E-1,2.7592686E-1,5.7539135E-1,2.6964543E-2,-2.9634485E-1,2.8946173E-1,3.9597753E-1,-5.2783126E-1,5.492381E-1,-7.306816E-2,8.2045555E-1,9.89677E-3,-1.7805909E-1,3.0296722E-1],"categories":[],"categories_nodes":[],"categories_segments":[],"categories_sizes":[],"default_left":[1,1,1,1,1,1,0,1,1,1,1,1,1,0,0,1,1,0,1,0,0,1,1,1,1,1,0,0,0,0,0,0,0,0,0,1,1,1,1,0,0,0,0,0,0,0,0,0,0],"id":27,"left_children":[1,3,5,7,9,11,-1,13,15,17,19,21,23,-1,-1,25,27,-1,29,-1,-1,31,33,35,37,39,-1,-1,-1,-1,-1,-1,-1,-1,-1,41,43,45,47,-1,-1,-1,-1,-1,-1,-1,-1,-1,-1],"loss_changes":[3.0239412E-1,4.8621118E-1,4.167303E-1,4.3246478E-1,3.1616873E-1,2.6231074E-1,0E0,2.3396105E-1,6.296284E-1,3.7146795E-1,9.460848E-1,7.9384387E-1,6.6133064E-1,0E0,0E0,5.3528225E-1,3.14358E-1,0E0,2.4643302E-2,0E0,0E0,2.9669714E-1,3.4539557E-1,1.2043278E0,6.65663E-1,5.2781904E-1,0E0,0E0,0E0,0E0,0E0,0E0,0E0,0E0,0E0,1.2486852E0,5.024921E-1,4.659642E-1,4.822677E-1,0E0,0E0,0E0,0E0,0E0,0E0,0E0,0E0,0E0,0E0],"parents":[2147483647,0,0,1,1,2,2,3,3,4,4,5,5,7,7,8,8,9,9,10,10,11,11,12,12,15,15,16,16,18,18,21,21,22,22,23,23,24,24,25,25,35,35,36,36,37,37,38,38],"right_children":[2,4,6,8,10,12,-1,14,16,18,20,22,24,-1,-1,26,28,-1,30,-1,-1,32,34,36,38,40,-1,-1,-1,-1,-1,-1,-1,-1,-1,42,44,46,48,-1,-1,-1,-1,-1,-1,-1,-1,-1,-1],"split_conditions":[1.2618886E2,5E-1,5E-1,2.4795E3,4.312E3,3.4945E3,-9.3299314E-2,7.091055E1,4.2105E3,2.289E3,5E-1,2.2059058E3,6.072E3,-2.0776524E-3,1.6158977E-1,1.015E2,4.7365E3,-3.9027742E-4,1.5E0,1.2999733E-1,-1.4184545E-1,1.4620609E2,1.640499E2,2.0705E3,1.645E2,5E-1,-1.7662145E-1,1.5128033E-1,-1.3348627E-2,-2.1219382E-1,-5.986299E-2,2.0914207E-1,2.9599754E-2,-1.13101654E-1,5.392755E-2,1.345E2,3.1461477E3,8.542E3,2.595E2,-8.890346E-2,8.683852E-2,1.18793264E-1,-1.5834938E-1,1.6477144E-1,-2.1920448E-2,2.4613668E-1,2.9690312E-3,-5.3417727E-2,9.089017E-2],"split_indices":[7,1,4,5,5,5,0,7,5,5,10,6,5,0,0,7,5,0,2,0,0,7,7,6,7,10,0,0,0,0,0,0,0,0,0,7,6,5,7,0,0,0,0,0,0,0,0,0,0],"split_type":[0,0,0,0,0,0,0,0,0,0,0,0,0,0,0,0,0,0,0,0,0,0,0,0,0,0,0,0,0,0,0,0,0,0,0,0,0,0,0,0,0,0,0,0,0,0,0,0,0],"sum_hessian":[4.6308975E1,1.8128307E1,2.8180668E1,1.12300825E1,6.8982234E0,2.6290941E1,1.8897272E0,2.3048956E0,8.925187E0,4.285873E0,2.612351E0,6.3311334E0,1.9959808E1,1.2224722E0,1.0824233E0,6.02963E0,2.8955574E0,1.4197911E0,2.8660817E0,1.3654313E0,1.2469195E0,3.670744E0,2.6603894E0,1.0969605E1,8.990203E0,4.172052E0,1.8575784E0,1.161383E0,1.7341743E0,1.6584454E0,1.2076364E0,1.999908E0,1.6708359E0,1.4201605E0,1.2402289E0,7.1222625E0,3.8473427E0,2.4209533E0,6.569249E0,2.239459E0,1.9325925E0,1.0638576E0,6.058405E0,1.8358489E0,2.0114937E0,1.374453E0,1.0465003E0,3.9729095E0,2.5963397E0],"tree_param":{"num_deleted":"0","num_feature":"11","num_nodes":"49","size_leaf_vector":"0"}},{"base_weights":[-1.9833301E-3,2.7221426E-1,-3.3204075E-2,3.5030752E-1,3.4429755E-2,-1.3309774E-1,4.2932354E-2,-4.3286942E-2,-3.58146E-1,8.576258E-2,-3.729495E-1,-1.5203887E-1,3.6730093E-1,-4.9772763E-1,-4.6708502E-2,1.5104425E-1,-2.3707394E-1,-2.6942955E-2,-5.067984E-1,7.059315E-2,5.2243036E-1,-3.663089E-2,2.4040374E-1,-5.616964E-1,8.076158E-2,7.303985E-2,-3.1468207E-1,2.6984978E-1,-4.954528E-1,1.4245257E-1,6.556087E-1,3.3556107E-1,-2.1357328E-1],"categories":[],"categories_nodes":[],"categories_segments":[],"categories_sizes":[],"default_left":[1,1,1,0,0,1,1,1,1,1,0,1,1,0,0,1,1,1,0,0,0,1,1,0,1,0,0,0,0,0,0,0,0],"id":28,"left_children":[1,3,5,-1,-1,7,9,11,13,15,-1,17,19,-1,-1,21,23,25,-1,-1,-1,27,29,-1,31,-1,-1,-1,-1,-1,-1,-1,-1],"loss_changes":[4.032666E-1,7.737273E-2,3.2693413E-1,0E0,0E0,3.5864362E-1,4.7237015E-1,6.9743466E-1,2.0031059E-1,5.2535015E-1,0E0,5.21867E-1,1.15086555E-1,0E0,0E0,3.4307754E-1,4.8862705E-1,3.1002238E-1,0E0,0E0,0E0,1.1598016E0,4.6114153E-1,0E0,3.000359E-1,0E0,0E0,0E0,0E0,0E0,0E0,0E0,0E0],"parents":[2147483647,0,0,1,1,2,2,5,5,6,6,7,7,8,8,9,9,11,11,12,12,15,15,16,16,17,17,21,21,22,22,24,24],"right_children":[2,4,6,-1,-1,8,10,12,14,16,-1,18,20,-1,-1,22,24,26,-1,-1,-1,28,30,-1,32,-1,-1,-1,-1,-1,-1,-1,-1],"split_conditions":[9.873687E-1,1.5E0,1.3227812E2,1.05092265E-1,1.0328927E-2,1.145E2,3.6E2,1.11262E2,1.4955E3,3.1461477E3,-1.11884855E-1,1.2935E3,3.7085E3,-1.493183E-1,-1.4012551E-2,5E-1,5E-1,9.7E1,-1.5203953E-1,2.1177946E-2,1.5672912E-1,1.2E2,2.536E3,-1.6850893E-1,1.5E0,2.1911956E-2,-9.440462E-2,8.095494E-2,-1.4863585E-1,4.273577E-2,1.9668262E-1,1.00668326E-1,-6.407198E-2],"split_indices":[9,10,7,0,0,7,7,7,6,6,0,6,5,0,0,10,2,7,0,0,0,6,6,0,2,0,0,0,0,0,0,0,0],"split_type":[0,0,0,0,0,0,0,0,0,0,0,0,0,0,0,0,0,0,0,0,0,0,0,0,0,0,0,0,0,0,0,0,0],"sum_hessian":[4.5051155E1,3.816199E0,4.1234955E1,2.5165112E0,1.2996879E0,1.751133E1,2.3723625E1,1.3368615E1,4.1427145E0,2.2228203E1,1.495424E0,1.1067013E1,2.3016024E0,2.4475827E0,1.6951317E0,1.8932037E1,3.2961655E0,8.977351E0,2.0896618E0,1.2897763E0,1.0118262E0,6.296995E0,1.2635041E1,1.2510976E0,2.0450678E0,7.216085E0,1.7612662E0,4.022163E0,2.2748325E0,1.1309987E1,1.3250542E0,1.0210773E0,1.0239906E0],"tree_param":{"num_deleted":"0","num_feature":"11","num_nodes":"33","size_leaf_vector":"0"}},{"base_weights":[-5.9527564E-3,3.381874E-2,-2.0318961E-1,-3.7252355E-1,5.5329584E-2,2.1241839E-1,-3.1297976E-1,1.0851982E-1,-1.1780456E-1,-4.7320363E-1,-1.4134547E-1,-2.5852928E-1,1.5256087E-1,3.627971E-1,-2.2232147E-1,1.5711969E-1,-4.690106E-1,-5.7299364E-1,1.6295733E-1,6.6752815E-1,9.6208215E-2,2.0908053E-1,-3.147787E-1,-6.291138E-2,3.1205028E-1,1.7214881E-2,2.9175004E-1,-4.795689E-1,-3.0894201E-2],"categories":[],"categories_nodes":[],"categories_segments":[],"categories_sizes":[],"default_left":[1,1,1,0,1,0,1,1,1,0,1,1,1,0,1,1,0,0,0,0,1,0,1,0,0,0,0,0,0],"id":29,"left_children":[1,3,5,-1,7,-1,9,11,13,-1,15,17,19,-1,21,23,-1,-1,-1,-1,25,-1,27,-1,-1,-1,-1,-1,-1],"loss_changes":[3.6054683E-1,3.5606334E-1,4.182169E-1,0E0,3.5645682E-1,0E0,1.1191791E-1,5.093471E-1,5.4530054E-1,0E0,5.20144E-1,5.5532837E-1,7.072279E-1,0E0,3.9359337E-1,1.2660688E-1,0E0,0E0,0E0,0E0,3.831463E-1,0E0,3.2044685E-1,0E0,0E0,0E0,0E0,0E0,0E0],"parents":[2147483647,0,0,1,1,2,2,4,4,6,6,7,7,8,8,10,10,11,11,12,12,14,14,15,15,20,20,22,22],"right_children":[2,4,6,-1,8,-1,10,12,14,-1,16,18,20,-1,22,24,-1,-1,-1,-1,26,-1,28,-1,-1,-1,-1,-1,-1],"split_conditions":[5E-1,6.05E1,6.4E1,-1.1175707E-1,1.5E0,6.372552E-2,3.414E3,2.4105548E2,2.952E3,-1.419611E-1,4.607E3,1.1651529E2,3.5658585E2,1.0883914E-1,1.0516671E2,4.142E3,-1.4070319E-1,-1.718981E-1,4.88872E-2,2.0025845E-1,6.45E3,6.2724166E-2,6.03E3,-1.8873414E-2,9.3615085E-2,5.1644645E-3,8.752502E-2,-1.4387068E-1,-9.268261E-3],"split_indices":[0,7,7,0,2,0,5,8,5,0,5,7,8,0,7,5,0,0,0,0,5,0,5,0,0,0,0,0,0],"split_type":[0,0,0,0,0,0,0,0,0,0,0,0,0,0,0,0,0,0,0,0,0,0,0,0,0,0,0,0,0],"sum_hessian":[4.4086304E1,3.7377846E1,6.7084556E0,1.0588126E0,3.6319035E1,1.2065023E0,5.501953E0,2.8068913E1,8.250122E0,1.936835E0,3.5651183E0,2.4853332E0,2.5583578E1,1.0322642E0,7.2178574E0,2.1380699E0,1.4270483E0,1.21751E0,1.2678233E0,1.4536988E0,2.4129879E1,1.0512742E0,6.1665835E0,1.1288399E0,1.0092301E0,1.7961843E1,6.1680365E0,3.4655683E0,2.7010152E0],"tree_param":{"num_deleted":"0","num_feature":"11","num_nodes":"29","size_leaf_vector":"0"}},{"base_weights":[-6.1965818E-3,2.6334673E-1,-3.6574647E-2,4.496136E-2,3.3005124E-1,-5.623585E-3,-3.2489777E-1,4.228182E-1,6.512599E-2,-4.7081567E-2,6.3337356E-1,-5.8129776E-1,-7.8090294E-3,-7.630218E-2,4.5996583E-1,-4.420484E-2,-5.378396E-1,4.852135E-2,-2.0383543E-1],"categories":[],"categories_nodes":[],"categories_segments":[],"categories_sizes":[],"default_left":[1,1,1,0,1,1,1,0,0,1,0,0,0,1,0,1,0,0,0],"id":30,"left_children":[1,3,5,-1,7,9,11,-1,-1,13,-1,-1,-1,15,-1,17,-1,-1,-1],"loss_changes":[3.7436086E-1,5.2659273E-2,3.6324677E-1,0E0,5.58196E-2,1.0354759E0,3.164592E-1,0E0,0E0,5.770644E-1,0E0,0E0,0E0,5.01295E-1,0E0,5.1654273E-1,0E0,0E0,0E0],"parents":[2147483647,0,0,1,1,2,2,4,4,5,5,6,6,9,9,13,13,15,15],"right_children":[2,4,6,-1,8,10,12,-1,-1,14,-1,-1,-1,16,-1,18,-1,-1,-1],"split_conditions":[9.873687E-1,2.489E3,1.30515E4,1.3488408E-2,1.5E0,1.1198E4,1.8249E4,1.2684546E-1,1.9537797E-2,3.60555E2,1.9001208E-1,-1.7438933E-1,-2.3427089E-3,9.1665E3,1.3798976E-1,1.5993721E3,-1.6135189E-1,1.4556406E-2,-6.115063E-2],"split_indices":[9,5,5,0,2,5,5,0,0,8,0,0,0,5,0,6,0,0,0],"split_type":[0,0,0,0,0,0,0,0,0,0,0,0,0,0,0,0,0,0,0],"sum_hessian":[4.354323E1,3.6335871E0,3.990964E1,1.2418629E0,2.391724E0,3.6961395E1,2.9482467E0,1.3300124E0,1.0617117E0,3.5579334E1,1.3820592E0,1.1694158E0,1.7788309E0,3.4443886E1,1.1354485E0,3.322879E1,1.2150985E0,2.145946E1,1.1769328E1],"tree_param":{"num_deleted":"0","num_feature":"11","num_nodes":"19","size_leaf_vector":"0"}},{"base_weights":[-2.1880036E-3,2.166251E-2,-2.5038543E-1,-9.551929E-3,5.413235E-1,-4.9029303E-1,1.4940378E-2,-3.586774E-2,4.4875583E-1,-1.2527029E-2,-4.1518614E-1,1.640137E-2,-2.8966132E-1,-1.6332464E-2,5.2850693E-1,-4.5822397E-1,6.5506294E-2],"categories":[],"categories_nodes":[],"categories_segments":[],"categories_sizes":[],"default_left":[1,1,1,1,0,0,0,1,0,1,0,1,1,0,0,0,0],"id":31,"left_children":[1,3,5,7,-1,-1,-1,9,-1,11,-1,13,15,-1,-1,-1,-1],"loss_changes":[2.6554212E-1,6.703841E-1,2.5761122E-1,4.9452734E-1,0E0,0E0,0E0,3.351336E-1,0E0,3.033322E-1,0E0,5.898035E-1,2.4396953E-1,0E0,0E0,0E0,0E0],"parents":[2147483647,0,0,1,1,2,2,3,3,7,7,9,9,11,11,12,12],"right_children":[2,4,6,8,-1,-1,-1,10,-1,12,-1,14,16,-1,-1,-1,-1],"split_conditions":[1.30515E4,1.1198E4,1.8249E4,3.60555E2,1.6239706E-1,-1.4708792E-1,4.4821138E-3,9.1665E3,1.3462676E-1,4.3762363E3,-1.2455585E-1,2.54E2,1.5E0,-4.8997393E-3,1.5855208E-1,-1.3746719E-1,1.965189E-2],"split_indices":[5,5,5,8,0,0,0,5,0,6,0,7,2,0,0,0,0],"split_type":[0,0,0,0,0,0,0,0,0,0,0,0,0,0,0,0,0],"sum_hessian":[4.294158E1,4.0009586E1,2.931997E0,3.8668507E1,1.3410794E0,1.094479E0,1.8375182E0,3.7440434E1,1.2280728E0,3.624329E1,1.1971438E0,3.3669544E1,2.5737453E0,3.255663E1,1.1129155E0,1.5486112E0,1.0251341E0],"tree_param":{"num_deleted":"0","num_feature":"11","num_nodes":"17","size_leaf_vector":"0"}},{"base_weights":[-1.5033415E-4,2.3432183E-1,-2.6394684E-2,6.752357E-2,3.7567896E-1,8.869169E-3,-1.9558589E-1,2.3541728E-1,-1.554572E-1,3.8377047E-2,-2.8185898E-1,1.8797569E-1,-3.0801585E-1,-3.3843193E-2,2.1909493E-1,5.8282472E-2,-4.7910088E-1,-4.8623097E-1,-1.3892318E-1,6.7365445E-2,-3.209041E-1,5.297601E-1,1.1714424E-2,1.1988636E-1,-4.3370995E-1,-1.14182465E-1,2.4006023E-1,-6.2846076E-1,2.0625046E-1,7.707214E-1,3.0752419E-2,-1.95378E-1,2.6003215E-1,-5.1622204E-2,2.3997885E-1],"categories":[],"categories_nodes":[],"categories_segments":[],"categories_sizes":[],"default_left":[1,1,1,1,0,1,1,0,0,1,1,0,1,1,1,0,0,0,1,1,1,1,1,1,0,0,0,0,0,0,0,0,0,0,0],"id":32,"left_children":[1,3,5,7,-1,9,11,-1,-1,13,15,-1,17,19,21,-1,-1,-1,23,25,27,29,31,33,-1,-1,-1,-1,-1,-1,-1,-1,-1,-1,-1],"loss_changes":[2.7399397E-1,8.031377E-2,2.4061939E-1,1.5921047E-1,0E0,3.0326396E-1,3.5757378E-1,0E0,0E0,4.2282575E-1,2.4670407E-1,0E0,1.0581511E-1,7.074714E-1,5.87909E-1,0E0,0E0,0E0,3.8402736E-1,6.005295E-1,1.1554207E0,4.1745806E-1,3.8777688E-1,7.625644E-2,0E0,0E0,0E0,0E0,0E0,0E0,0E0,0E0,0E0,0E0,0E0],"parents":[2147483647,0,0,1,1,2,2,3,3,5,5,6,6,9,9,10,10,12,12,13,13,14,14,18,18,19,19,20,20,21,21,22,22,23,23],"right_children":[2,4,6,8,-1,10,12,-1,-1,14,16,-1,18,20,22,-1,-1,-1,24,26,28,30,32,34,-1,-1,-1,-1,-1,-1,-1,-1,-1,-1,-1],"split_conditions":[9.873687E-1,2.4726125E3,5E-1,1.4821396E3,1.1270369E-1,5E-1,6.4E1,7.0625186E-2,-4.6637163E-2,6.072E3,1.395E2,5.639271E-2,3.414E3,4.687E3,1.645E2,1.7484743E-2,-1.4373027E-1,-1.458693E-1,4.607E3,1.2083902E2,1.7558513E2,8.542E3,9.627E3,4.112E3,-1.3011299E-1,-3.425474E-2,7.201807E-2,-1.8853824E-1,6.187514E-2,2.3121642E-1,9.225726E-3,-5.8613405E-2,7.800965E-2,-1.5486662E-2,7.199366E-2],"split_indices":[9,6,0,6,0,4,7,0,0,5,7,0,5,5,7,0,0,0,5,7,7,5,5,5,0,0,0,0,0,0,0,0,0,0,0],"split_type":[0,0,0,0,0,0,0,0,0,0,0,0,0,0,0,0,0,0,0,0,0,0,0,0,0,0,0,0,0,0,0,0,0,0,0],"sum_hessian":[4.252094E1,3.4821613E0,3.9038776E1,2.2751803E0,1.2069811E0,3.308962E1,5.9491596E0,1.2660968E0,1.0090834E0,3.0828619E1,2.2609987E0,1.1962264E0,4.752933E0,2.2606943E1,8.221677E0,1.0884652E0,1.1725335E0,1.4009126E0,3.3520205E0,1.7279915E1,5.3270273E0,2.668946E0,5.552731E0,2.100866E0,1.2511544E0,8.589207E0,8.690709E0,3.2428706E0,2.0841565E0,1.4326423E0,1.2363037E0,3.1439378E0,2.408793E0,1.1000252E0,1.0008408E0],"tree_param":{"num_deleted":"0","num_feature":"11","num_nodes":"35","size_leaf_vector":"0"}},{"base_weights":[-5.225893E-4,4.433957E-2,-1.2405197E-1,8.621088E-2,-1.7963788E-1,-2.930824E-1,1.954343E-2,2.8491927E-2,4.6261218E-1,-3.6437783E-1,1.1247875E-1,-6.1161708E-2,-5.573485E-1,3.0781284E-1,-1.5336004E-1,8.178264E-2,-4.029177E-1,5.762383E-1,1.8895069E-1,-2.6080817E-1,1.7786369E-1,-3.9195326E-1,1.9527194E-1,-1.6658537E-2,3.9664033E-1,-5.199808E-1,-6.552715E-2,9.2721514E-2,-2.6628023E-1,7.544966E-1,1.233665E-1],"categories":[],"categories_nodes":[],"categories_segments":[],"categories_sizes":[],"default_left":[1,1,1,1,1,1,1,1,1,0,0,1,0,0,1,1,0,0,0,0,0,1,0,1,1,0,0,0,0,0,0],"id":33,"left_children":[1,3,5,7,9,11,13,15,17,-1,-1,19,-1,-1,21,23,-1,-1,-1,-1,-1,25,-1,27,29,-1,-1,-1,-1,-1,-1],"loss_changes":[2.4248677E-1,3.1659627E-1,2.8864634E-1,5.8918226E-1,3.3138442E-1,2.9787806E-1,4.080551E-1,6.1012745E-1,3.7059784E-3,0E0,0E0,2.3765348E-1,0E0,0E0,5.084864E-1,7.249596E-1,0E0,0E0,0E0,0E0,0E0,1.086663E-1,0E0,5.329704E-1,4.5070285E-1,0E0,0E0,0E0,0E0,0E0,0E0],"parents":[2147483647,0,0,1,1,2,2,3,3,4,4,5,5,6,6,7,7,8,8,11,11,14,14,15,15,21,21,23,23,24,24],"right_children":[2,4,6,8,10,12,14,16,18,-1,-1,20,-1,-1,22,24,-1,-1,-1,-1,-1,26,-1,28,30,-1,-1,-1,-1,-1,-1],"split_conditions":[1.5E0,7.9405E3,1.440867E2,6.0225E3,5E-1,1.17E2,4.695E3,5.8E3,6.393E3,-1.09313354E-1,3.3743627E-2,5E-1,-1.6720456E-1,9.234385E-2,8.3335E3,4.56E3,-1.2087532E-1,1.7287149E-1,5.668521E-2,-7.824245E-2,5.335911E-2,1.5E0,5.8581583E-2,3.6005E3,4.6205E3,-1.5599424E-1,-1.9658145E-2,2.7816456E-2,-7.9884075E-2,2.2634898E-1,3.700995E-2],"split_indices":[10,5,7,5,10,7,5,5,5,0,0,0,0,0,5,5,0,0,0,0,0,2,0,5,5,0,0,0,0,0,0],"split_type":[0,0,0,0,0,0,0,0,0,0,0,0,0,0,0,0,0,0,0,0,0,0,0,0,0,0,0,0,0,0,0],"sum_hessian":[4.176347E1,3.1107294E1,1.0656174E1,2.6726095E1,4.3811994E0,4.416432E0,6.239742E0,2.4105371E1,2.6207228E0,2.5323339E0,1.8488656E0,3.0080228E0,1.4084092E0,2.046876E0,4.192866E0,2.2176416E1,1.9289557E0,1.070559E0,1.5501639E0,1.5893681E0,1.4186548E0,2.415506E0,1.7773601E0,1.7615858E1,4.560558E0,1.3091094E0,1.1063964E0,1.2685734E1,4.9301243E0,1.2122039E0,3.348354E0],"tree_param":{"num_deleted":"0","num_feature":"11","num_nodes":"31","size_leaf_vector":"0"}},{"base_weights":[4.1618256E-5,3.322368E-2,-1.6589922E-1,8.155444E-2,-1.2123165E-1,1.3827449E-1,-2.511293E-1,-1.5824655E-1,1.1772416E-1,-2.3131546E-1,2.16573E-1,-3.399132E-1,-1.5820488E-2,-4.7989917E-1,2.0781739E-1,2.546724E-1,-6.6085556E-3,-1.6640436E-2,-4.2715344E-1,-6.090103E-1,1.7828277E-1,2.1680351E-2,4.167143E-1,-1.3225771E-1,2.7294138E-1,2.9332477E-1,-2.5707993E-1,-5.5617225E-1,-6.878394E-2,3.4601206E-1,-3.203815E-1,6.785117E-1,2.1840635E-1,-4.0189382E-1,8.27166E-2,6.016355E-1,-9.5539235E-2,-3.274648E-1,-5.606962E-2],"categories":[],"categories_nodes":[],"categories_segments":[],"categories_sizes":[],"default_left":[1,1,1,1,1,0,1,1,1,1,0,1,0,0,0,1,1,1,1,0,0,1,1,1,1,0,1,0,0,0,0,0,0,0,0,0,0,0,0],"id":34,"left_children":[1,3,5,7,9,-1,11,13,15,17,-1,19,-1,-1,-1,21,23,25,27,-1,-1,29,31,33,35,-1,37,-1,-1,-1,-1,-1,-1,-1,-1,-1,-1,-1,-1],"loss_changes":[2.3685196E-1,2.7747473E-1,2.2055638E-1,2.60625E-1,3.8274994E-1,0E0,1.1901742E-1,5.8052325E-1,4.2424816E-1,2.9686692E-1,0E0,7.046099E-1,0E0,0E0,0E0,4.3777984E-1,5.2723366E-1,4.100249E-1,1.346929E-1,0E0,0E0,7.664601E-1,2.1134484E-1,6.314501E-1,6.2215817E-1,0E0,2.4952248E-2,0E0,0E0,0E0,0E0,0E0,0E0,0E0,0E0,0E0,0E0,0E0,0E0],"parents":[2147483647,0,0,1,1,2,2,3,3,4,4,6,6,7,7,8,8,9,9,11,11,15,15,16,16,17,17,18,18,21,21,22,22,23,23,24,24,26,26],"right_children":[2,4,6,8,10,-1,12,14,16,18,-1,20,-1,-1,-1,22,24,26,28,-1,-1,30,32,34,36,-1,38,-1,-1,-1,-1,-1,-1,-1,-1,-1,-1,-1,-1],"split_conditions":[5E-1,1.5E0,6.4E1,2.4105548E2,8.15E3,4.1482348E-2,1.375E2,1.1348808E2,1.3587743E2,4.687E3,6.49719E-2,4.163E3,-4.7461465E-3,-1.4396976E-1,6.2345218E-2,3.348E3,2.1941031E2,5E-1,1.5E0,-1.827031E-1,5.348483E-2,2.378E3,1.0702939E2,5E-1,5E-1,8.799744E-2,2.479E3,-1.6685168E-1,-2.0635182E-2,1.0380362E-1,-9.611445E-2,2.0355351E-1,6.552191E-2,-1.2056815E-1,2.481498E-2,1.8049066E-1,-2.866177E-2,-9.8239444E-2,-1.6820887E-2],"split_indices":[0,10,7,8,5,0,7,7,7,5,0,5,0,0,0,5,7,1,2,0,0,5,7,10,2,0,6,0,0,0,0,0,0,0,0,0,0,0,0],"split_type":[0,0,0,0,0,0,0,0,0,0,0,0,0,0,0,0,0,0,0,0,0,0,0,0,0,0,0,0,0,0,0,0,0,0,0,0,0,0,0],"sum_hessian":[4.1014034E1,3.484592E1,6.1681156E0,2.690046E1,7.94546E0,1.2138163E0,4.9542994E0,3.083317E0,2.3817142E1,6.2303514E0,1.7151085E0,3.2743285E0,1.6799711E0,1.4756893E0,1.6076279E0,1.0834735E1,1.2982407E1,3.489823E0,2.740528E0,2.0398116E0,1.234517E0,4.9094596E0,5.9252753E0,9.320168E0,3.6622396E0,1.4284145E0,2.0614088E0,1.6092281E0,1.1313001E0,2.514113E0,2.3953469E0,1.510145E0,4.4151306E0,3.7487369E0,5.57143E0,1.6011903E0,2.0610492E0,1.0608513E0,1.0005573E0],"tree_param":{"num_deleted":"0","num_feature":"11","num_nodes":"39","size_leaf_vector":"0"}},{"base_weights":[-3.855044E-4,2.5974643E-1,-3.0073883E-2,3.3756596E-1,4.9224067E-2,-9.980737E-4,-3.0297673E-1,-2.8700756E-2,4.2666164E-1,-4.0122962E-1,-5.135968E-2,-3.6608283E-3,-3.573629E-1,-9.985089E-2,8.364081E-2,-1.5649433E-1,2.2588329E-1,2.3541276E-1,-1.52666E-1],"categories":[],"categories_nodes":[],"categories_segments":[],"categories_sizes":[],"default_left":[1,1,1,0,0,1,1,1,0,0,0,1,0,1,1,0,0,0,0],"id":35,"left_children":[1,3,5,-1,-1,7,9,11,-1,-1,-1,13,-1,15,17,-1,-1,-1,-1],"loss_changes":[3.2592323E-1,5.4210037E-2,3.0017126E-1,0E0,0E0,4.2956445E-1,6.9449216E-2,2.786552E-1,0E0,0E0,0E0,2.822864E-1,0E0,3.3012056E-1,6.687606E-1,0E0,0E0,0E0,0E0],"parents":[2147483647,0,0,1,1,2,2,5,5,6,6,7,7,11,11,13,13,14,14],"right_children":[2,4,6,-1,-1,8,10,12,-1,-1,-1,14,-1,16,18,-1,-1,-1,-1],"split_conditions":[9.873687E-1,4.3235E3,1.30515E4,1.0126979E-1,1.4767221E-2,1.1198E4,2.01995E4,8.45E3,1.279985E-1,-1.2036889E-1,-1.5407904E-2,1.3227812E2,-1.0720887E-1,2.4435E3,1.9915571E3,-4.6948303E-2,6.776499E-2,7.062383E-2,-4.5799803E-2],"split_indices":[9,5,5,0,0,5,5,5,0,0,0,7,0,6,6,0,0,0,0],"split_type":[0,0,0,0,0,0,0,0,0,0,0,0,0,0,0,0,0,0,0],"sum_hessian":[4.019072E1,3.323229E0,3.686749E1,1.9857343E0,1.3374947E0,3.422475E1,2.6427405E0,3.301877E1,1.2059811E0,1.4729644E0,1.1697761E0,3.16208E1,1.3979692E0,1.4976145E1,1.6644655E1,1.3200255E1,1.7758898E0,1.0137476E1,6.5071783E0],"tree_param":{"num_deleted":"0","num_feature":"11","num_nodes":"19","size_leaf_vector":"0"}},{"base_weights":[7.779239E-4,2.1689098E-1,-2.3372646E-2,2.951523E-3,2.897796E-1,-3.0869313E-3,-3.20698E-1,-2.7882424E-1,1.9851267E-2,2.538142E-1,-1.38776945E-2,-4.8180822E-2,5.3639495E-1,-1.3814552E-1,5.3270433E-2,-1.0773129E-1,3.452787E-2,-3.3041885E-1,1.0909699E-1,8.1113065E-3,2.6060086E-1],"categories":[],"categories_nodes":[],"categories_segments":[],"categories_sizes":[],"default_left":[1,1,1,0,0,1,0,0,1,1,1,1,0,1,1,0,0,0,0,0,0],"id":36,"left_children":[1,3,5,-1,-1,7,-1,-1,9,11,13,15,-1,17,19,-1,-1,-1,-1,-1,-1],"loss_changes":[2.17554E-1,6.447469E-2,2.2532362E-1,0E0,0E0,2.3408842E-1,0E0,0E0,2.741455E-1,3.990121E-1,2.6537406E-1,1.8650316E-2,0E0,5.6492174E-1,1.9259305E-1,0E0,0E0,0E0,0E0,0E0,0E0],"parents":[2147483647,0,0,1,1,2,2,5,5,8,8,9,9,10,10,11,11,13,13,14,14],"right_children":[2,4,6,-1,-1,8,-1,-1,10,12,14,16,-1,18,20,-1,-1,-1,-1,-1,-1],"split_conditions":[9.873687E-1,2.489E3,3.6E2,8.85457E-4,8.693388E-2,6.05E1,-9.62094E-2,-8.364727E-2,8.383976E1,3.3455E3,1.3227812E2,7.05E1,1.6091849E-1,4.228E3,5E-1,-3.231939E-2,1.03583615E-2,-9.912566E-2,3.2729097E-2,2.433392E-3,7.818026E-2],"split_indices":[9,5,7,0,0,7,0,0,7,5,7,7,0,5,3,0,0,0,0,0,0],"split_type":[0,0,0,0,0,0,0,0,0,0,0,0,0,0,0,0,0,0,0,0,0],"sum_hessian":[3.9711704E1,3.189496E0,3.6522205E1,1.0749232E0,2.114573E0,3.5135395E1,1.3868119E0,1.8416529E0,3.3293743E1,3.3728259E0,2.9920916E1,2.0313802E0,1.3414457E0,1.0125259E1,1.9795658E1,1.0051388E0,1.0262414E0,5.506555E0,4.6187043E0,1.7108366E1,2.6872904E0],"tree_param":{"num_deleted":"0","num_feature":"11","num_nodes":"21","size_leaf_vector":"0"}},{"base_weights":[1.9174506E-3,-3.9579827E-2,1.1813892E-1,1.7363916E-1,-1.6163649E-1,-1.4849503E-1,3.9801255E-1,-7.887611E-2,4.1201842E-1,-7.711646E-2,-6.470384E-1,-3.4731776E-1,2.1845783E-1,6.9725406E-1,8.9124545E-2,1.5837315E-1,-3.794613E-1,5.971939E-1,-1.3562335E-1,-1.3435857E-1,4.095811E-1,2.818091E-2,-5.222539E-1,-9.759172E-2,2.2460103E-1,-3.4807423E-1,4.2531988E-1,-5.6809103E-1,7.3313387E-3,7.4946046E-1,8.102301E-2,-1.9156526E-1,5.13395E-2,-3.3474246E-1,7.918175E-2,3.3173814E-1,-3.7106094E-1],"categories":[],"categories_nodes":[],"categories_segments":[],"categories_sizes":[],"default_left":[1,1,1,1,1,1,1,1,1,1,0,1,0,0,1,1,1,1,0,1,0,0,0,0,0,0,0,0,0,0,0,1,1,0,0,0,0],"id":37,"left_children":[1,3,5,7,9,11,13,15,17,19,-1,21,-1,-1,23,25,27,29,-1,31,-1,-1,-1,-1,-1,-1,-1,-1,-1,-1,-1,33,35,-1,-1,-1,-1],"loss_changes":[1.991744E-1,8.20954E-1,8.696454E-1,7.291541E-1,7.662442E-1,5.348354E-1,4.527974E-1,5.207397E-1,7.0101655E-1,5.5868524E-1,0E0,3.0809277E-1,0E0,0E0,1.2026553E-1,7.3148394E-1,2.3354071E-1,3.1293142E-1,0E0,1.8967259E-1,0E0,0E0,0E0,0E0,0E0,0E0,0E0,0E0,0E0,0E0,0E0,5.363885E-1,6.8871504E-1,0E0,0E0,0E0,0E0],"parents":[2147483647,0,0,1,1,2,2,3,3,4,4,5,5,6,6,7,7,8,8,9,9,11,11,14,14,15,15,16,16,17,17,19,19,31,31,32,32],"right_children":[2,4,6,8,10,12,14,16,18,20,-1,22,-1,-1,24,26,28,30,-1,32,-1,-1,-1,-1,-1,-1,-1,-1,-1,-1,-1,34,36,-1,-1,-1,-1],"split_conditions":[2.085E3,3.6005E3,4.0045E3,5E-1,1.6325E3,5E-1,2.707E3,5E-1,5E-1,1.427E3,-1.9411153E-1,2.312E3,6.5537356E-2,2.0917623E-1,1.8853185E2,7.05E1,1.6E3,1.5E0,-4.0687006E-2,1.94E2,1.22874334E-1,8.454273E-3,-1.5667617E-1,-2.9277517E-2,6.738031E-2,-1.0442227E-1,1.2759598E-1,-1.7042732E-1,2.1994016E-3,2.2483815E-1,2.4306903E-2,6.0225E3,2.775E2,-1.0042274E-1,2.3754528E-2,9.952145E-2,-1.1131828E-1],"split_indices":[6,5,5,10,6,2,6,1,0,6,0,5,0,0,7,7,6,10,0,7,0,0,0,0,0,0,0,0,0,0,0,5,7,0,0,0,0],"split_type":[0,0,0,0,0,0,0,0,0,0,0,0,0,0,0,0,0,0,0,0,0,0,0,0,0,0,0,0,0,0,0,0,0,0,0,0,0],"sum_hessian":[3.932833E1,2.9466618E1,9.861714E0,1.0573433E1,1.8893187E1,5.2907085E0,4.5710053E0,5.4594007E0,5.114032E0,1.7078316E1,1.8148699E0,3.4661725E0,1.8245361E0,1.6831326E0,2.887873E0,3.3155687E0,2.143832E0,3.754149E0,1.3598827E0,1.5928814E1,1.149502E0,1.3682166E0,2.097956E0,1.3318849E0,1.555988E0,1.0395124E0,2.2760563E0,1.1259903E0,1.0178418E0,2.549966E0,1.2041829E0,1.2153252E1,3.775562E0,7.7948117E0,4.35844E0,2.3982122E0,1.3773497E0],"tree_param":{"num_deleted":"0","num_feature":"11","num_nodes":"37","size_leaf_vector":"0"}},{"base_weights":[2.9559073E-3,5.7561107E-2,-8.00501E-2,5.0982255E-3,3.4032765E-1,-1.7110887E-1,2.4725027E-1,5.2323237E-2,-2.828011E-1,5.008031E-1,9.358866E-2,-8.805108E-2,-5.5878437E-1,5.0163454E-1,-1.7043112E-1,2.0906107E-1,-9.1158345E-2,-1.8889803E-2,-4.0069604E-1,-3.4904608E-1,8.631075E-2,5.9685804E-2,5.870738E-1,-6.078712E-1,3.7773732E-2,-4.9151632E-1,9.949428E-2,5.092662E-1,-1.16258055E-1,4.8970395E-1,-1.1832946E-1,3.9086536E-1,-6.2220912E-2,-8.1064045E-2,-7.034082E-1,1.215559E-1,-3.51763E-1],"categories":[],"categories_nodes":[],"categories_segments":[],"categories_sizes":[],"default_left":[1,1,1,1,1,1,1,1,1,0,0,1,0,0,0,1,1,0,0,1,1,1,0,0,1,1,0,0,1,0,0,0,0,0,0,0,0],"id":38,"left_children":[1,3,5,7,9,11,13,15,17,-1,-1,19,-1,-1,-1,21,23,-1,-1,25,27,29,-1,-1,31,33,-1,-1,35,-1,-1,-1,-1,-1,-1,-1,-1],"loss_changes":[1.822427E-1,3.5758233E-1,5.182556E-1,3.0637714E-1,1.0261932E-1,3.721172E-1,4.9826854E-1,4.5236868E-1,9.131834E-2,0E0,0E0,5.7453346E-1,0E0,0E0,0E0,5.0206804E-1,7.395084E-1,0E0,0E0,3.6774856E-1,7.423588E-1,6.6507083E-1,0E0,0E0,3.6147797E-1,2.8695518E-1,0E0,0E0,3.9030832E-1,0E0,0E0,0E0,0E0,0E0,0E0,0E0,0E0],"parents":[2147483647,0,0,1,1,2,2,3,3,4,4,5,5,6,6,7,7,8,8,11,11,15,15,16,16,19,19,20,20,21,21,24,24,25,25,28,28],"right_children":[2,4,6,8,10,12,14,16,18,-1,-1,20,-1,-1,-1,22,24,-1,-1,26,28,30,-1,-1,32,34,-1,-1,36,-1,-1,-1,-1,-1,-1,-1,-1],"split_conditions":[4.7425E3,4.56E3,2.0706182E3,4.2575E3,5E-1,5E-1,4.576675E3,1.21E2,1.3256479E2,1.5024094E-1,2.8076598E-2,6.095E3,-1.6763532E-1,1.5049037E-1,-5.1129337E-2,1.24349525E2,9.9E1,-5.6669414E-3,-1.20208815E-1,1.7020004E2,7.4555E3,2.389E3,1.7612214E-1,-1.8236136E-1,9.406686E-1,5.2675E3,2.9848285E-2,1.5277986E-1,5E-1,1.4691119E-1,-3.549884E-2,1.17259614E-1,-1.8666275E-2,-2.4319215E-2,-2.1102247E-1,3.6466774E-2,-1.05528906E-1],"split_indices":[5,5,6,5,1,4,6,6,7,0,0,5,0,0,0,7,7,0,0,7,5,5,0,0,9,5,0,0,2,0,0,0,0,0,0,0,0],"split_type":[0,0,0,0,0,0,0,0,0,0,0,0,0,0,0,0,0,0,0,0,0,0,0,0,0,0,0,0,0,0,0,0,0,0,0,0,0],"sum_hessian":[3.8190865E1,2.3221336E1,1.4969527E1,2.0445942E1,2.7753932E0,1.2084649E1,2.8848784E0,1.8267694E1,2.1782477E0,1.057756E0,1.7176373E0,1.0962999E1,1.1216495E0,1.6680021E0,1.2168763E0,8.512102E0,9.755593E0,1.030861E0,1.1473867E0,3.989473E0,6.9735265E0,6.931105E0,1.5809971E0,1.2063438E0,8.549249E0,2.9550467E0,1.0344267E0,1.7679917E0,5.205535E0,1.516617E0,5.414488E0,1.2448146E0,7.3044343E0,1.4768455E0,1.478201E0,2.8308148E0,2.3747199E0],"tree_param":{"num_deleted":"0","num_feature":"11","num_nodes":"37","size_leaf_vector":"0"}},{"base_weights":[3.5989815E-3,3.9859314E-2,-1.2474444E-1,7.029078E-2,-4.0238112E-1,2.9652297E-1,-2.2019747E-1,1.4841468E-2,3.3540443E-1,1.5579669E-1,-3.033195E-1,-2.6546417E-2,2.6461902E-1,5.2839447E-2,6.872768E-1,-3.8118023E-1,-1.0804222E-1,7.797339E-2,-2.315305E-1,4.1283944E-1,-2.0619247E-3,2.841314E-1,-1.3273135E-1,-1.615059E-2,-5.7023543E-1,2.2863598E-1,-3.6773127E-1,-1.9794565E-2,5.47589E-1,-3.1384435E-1,1.08509764E-1],"categories":[],"categories_nodes":[],"categories_segments":[],"categories_sizes":[],"default_left":[1,1,1,1,0,0,1,1,1,0,1,1,1,1,0,1,1,1,1,0,0,0,0,0,0,0,0,0,0,0,0],"id":39,"left_children":[1,3,5,7,-1,-1,9,11,13,-1,15,17,19,21,-1,23,25,27,29,-1,-1,-1,-1,-1,-1,-1,-1,-1,-1,-1,-1],"loss_changes":[1.8174869E-1,4.3708E-1,4.1151047E-1,4.253211E-1,0E0,0E0,2.845727E-1,2.6809877E-1,4.6249914E-1,0E0,5.8525443E-2,5.016867E-1,1.4635125E-1,2.0363577E-1,0E0,2.8704935E-1,3.695367E-1,7.316069E-1,2.5447676E-1,0E0,0E0,0E0,0E0,0E0,0E0,0E0,0E0,0E0,0E0,0E0,0E0],"parents":[2147483647,0,0,1,1,2,2,3,3,6,6,7,7,8,8,10,10,11,11,12,12,13,13,15,15,16,16,17,17,18,18],"right_children":[2,4,6,8,-1,-1,10,12,14,-1,16,18,20,22,-1,24,26,28,30,-1,-1,-1,-1,-1,-1,-1,-1,-1,-1,-1,-1],"split_conditions":[1.5E0,5.475679E3,2.952E3,2.536E3,-1.20714344E-1,8.895689E-2,1.075E2,2.119028E2,5E-1,4.673901E-2,6.03E3,4.7425E3,1.0062E4,5E-1,2.0618305E-1,5E-1,6.6665E3,4.5615E3,1.1198E4,1.23851836E-1,-6.185774E-4,8.5239425E-2,-3.9819404E-2,-4.8451773E-3,-1.7107064E-1,6.85908E-2,-1.1031938E-1,-5.93837E-3,1.642767E-1,-9.415331E-2,3.255293E-2],"split_indices":[2,6,5,6,0,0,7,7,2,0,5,5,5,1,0,10,5,5,5,0,0,0,0,0,0,0,0,0,0,0,0],"split_type":[0,0,0,0,0,0,0,0,0,0,0,0,0,0,0,0,0,0,0,0,0,0,0,0,0,0,0,0,0,0,0],"sum_hessian":[3.6985607E1,2.9375656E1,7.6099496E0,2.8271307E1,1.1043488E0,1.016648E0,6.593302E0,2.4254408E1,4.0169005E0,1.035411E0,5.5578904E0,2.1573431E1,2.680976E0,2.8657646E0,1.1511358E0,3.292939E0,2.2649515E0,1.4698428E1,6.875003E0,1.3709443E0,1.3100317E0,1.0392907E0,1.826474E0,1.4939103E0,1.7990288E0,1.038347E0,